207 64
132 0.11352499 -1.3208978 0.92087775 -0.07620575 2.5374022 2.2088284 0.18927726 0.2662132 -1.5682575 0.047563482 1.4340054 -1.0197548 -1.7749119 2.409798 -0.29721552 2.129225 -3.156863 -1.937681 1.2308552 -1.737707 -0.9916373 -2.6044948 1.1314111 1.0164508 2.2033513 -2.845284 -0.36980563 0.75791156 0.13015318 -0.12267983 1.9155276 0.10684945 2.2234623 -1.5487821 -1.5304006 0.60206985 1.4340421 -1.1851939 0.37008196 -2.9779902 0.21975179 -0.5424324 0.016014693 0.857006 -1.8797683 0.8702361 0.7984134 -0.8996502 -1.0275648 0.46050537 -1.8857653 -0.9108495 0.954724 3.0962837 -0.23158635 -1.5842925 -1.113019 -1.6460742 -3.2846773 -0.1972778 0.35897708 -0.8402299 0.7891242 -0.8836978
77 -1.0151995 2.1759145 0.11838093 0.93277794 0.113465756 -0.61937946 0.60000986 0.77617294 -0.99741423 -2.1582506 0.21692875 -0.7936448 1.3413453 -0.44360614 2.4212368 0.052246384 0.5889631 -0.6126542 1.3878772 0.24679372 1.2476271 1.8677962 -1.2137139 -0.5210629 0.4445052 -2.8372197 0.7469656 -0.9300188 0.29604378 -0.5646318 1.2006764 -1.0381844 -2.5839882 1.4111017 1.9297206 0.40532345 -1.4650602 1.5191406 -0.01689699 0.9734871 1.8660887 2.4090378 1.5681298 -1.2450871 1.1981273 -0.9341466 -2.911259 -0.042515047 -1.7281257 0.10677357 2.8544402 1.3008262 -0.7462852 1.4982672 2.0285707 -2.234581 1.8452884 -1.9171312 1.7554452 1.0804269 -1.3046353 2.5118184 -1.2414672 0.07263691
85 0.020101976 -1.755133 0.8971066 0.18925387 1.9955683 1.8088243 -0.28220272 0.6004892 -1.6466926 0.6619298 1.6626418 -1.1005727 -1.3954213 2.074487 0.19993758 2.768388 -3.0963273 -2.1781359 0.97669744 -1.3289918 -1.1365418 -1.938295 1.1130233 0.7992711 2.2253878 -2.518237 -0.18732345 0.3421229 0.64600426 0.07772451 1.787975 -0.3711018 2.3766131 -1.6648322 -1.8009422 0.78551304 1.7670146 -1.1349665 0.5854907 -3.0907795 0.5219178 -0.8952824 0.30045882 0.52392995 -2.1255484 0.94711643 1.0765538 -1.1410718 -1.615482 0.6951972 -1.7729535 -0.81420064 0.8982818 3.041852 0.117835954 -1.0788778 -1.0652255 -1.4715028 -3.5902681 -0.61060286 0.25921205 -0.6179553 0.57203346 -0.82958746
130 0.010162702 2.4657104 -0.00074145425 1.4045383 -0.5838632 -0.6418947 0.36759576 1.7464654 -0.14890906 -1.1285352 -0.74308574 -0.11638076 0.17522867 -0.44951224 1.9184332 0.3737476 0.23636982 0.21145794 1.1075009 0.022134935 0.2910856 1.7829921 -1.5757251 -0.39013284 0.4770207 -3.204398 -0.014591833 -0.7448692 -0.30722028 -1.0278186 1.305429 -1.3058243 -3.3607473 0.9382067 1.2873038 -0.27430913 -2.9195335 1.1183884 -0.7957266 0.4585593 1.8913119 2.1878603 1.2964842 -1.9818118 1.6075256 1.3294146 -2.551369 -0.76159227 -0.2381738 -0.11799094 2.4611835 1.0652658 -1.1949902 1.3965244 2.264001 -3.0670319 0.75903964 -2.4893715 2.136526 0.7867217 0.107664555 3.1285703 -2.210251 0.7636774
43 -0.4939018 2.765697 0.31901616 1.4052657 -0.31831545 -0.0792601 0.51320976 1.8191518 -0.5225091 -1.4816948 -0.37513736 -0.8948532 0.34126812 -0.4644629 2.3118556 -0.25420192 0.17636573 -0.39224026 0.9302472 0.6477358 0.32963637 1.1712674 -1.6894801 -0.1723827 0.3222318 -2.5519135 0.67217964 -0.6746967 -0.056158006 -0.9516671 0.47091073 -1.5131421 -3.2156167 1.454319 0.75943404 -0.21340476 -2.5617058 1.396574 -0.27262273 0.72205347 1.6550624 2.0466092 1.8745315 -2.146855 1.0498842 -0.021195708 -2.395127 -0.9918389 -0.8695735 0.31717083 2.0172424 1.1285248 -1.3791225 0.7739932 1.8509266 -2.811033 0.1459191 -2.6745005 1.835575 0.71622705 -0.43943855 3.2717166 -2.063383 0.8770762
142 1.7755237 2.1062326 1.3134203 2.6700141 1.8375598 1.47487 1.5391057 -1.326674 -0.13414568 -1.9101958 0.024130894 1.1340265 0.09169547 2.233151 -0.6499656 -0.70890856 -0.61264306 2.741152 -2.6299446 1.0368233 -1.6110963 0.05632973 1.9557223 0.8773276 1.717355 2.7273786 2.7653072 1.1924143 -1.1672839 0.71642524 -0.3572638 2.3634431 0.36992976 -0.059032913 0.20032154 -0.88556355 0.40540445 0.82744354 1.2240776 -0.97373825 -0.4782147 -0.41526166 -3.2001235 1.0472356 -1.2411467 0.7320599 -0.010517634 0.30295262 1.5907799 -3.1998756 -0.7122277 1.8318728 1.0062249 0.04773299 -2.3121614 -2.9911373 2.523616 0.36935824 0.5402684 -1.7729865 -1.3567928 -1.594325 -0.021782478 -1.6138096
27 -0.89180243 -2.1638882 0.42843932 0.1159786 1.316994 2.122191 -0.5372235 0.7535542 -2.0575185 0.46586508 1.2723683 -1.2512876 -0.8583985 2.0027082 0.36739588 2.9559271 -2.3845909 -1.7810639 0.6951192 -1.7633855 -0.9315715 -1.5525278 1.290539 0.83082944 1.8280265 -2.355223 -0.18861847 -0.09632695 0.55708337 0.039186746 2.014813 -0.30431324 2.2516925 -2.0514596 -1.9430377 0.8817583 1.8851509 -1.5279763 -0.063967034 -3.2108164 0.4790291 -0.8619416 0.84239846 0.12668933 -2.653363 1.5758082 0.76524925 -1.1062801 -1.3641278 0.7037143 -2.0847661 -0.4921891 0.97150654 3.0429802 -0.13211143 -0.7254032 -0.9906804 -1.8187693 -3.3027594 -0.5980432 0.5512243 -0.81368756 0.69741154 -0.9452517
54 1.8455068 1.4536123 0.65305835 2.752168 1.890564 1.9164627 1.077708 -1.3043557 -0.2899571 -1.3249655 0.5547888 0.96427214 0.047636263 2.018284 -0.57416177 -0.2069132 -0.48085475 2.8197718 -3.0477326 0.32299805 -1.413924 -0.039418586 1.5223219 0.9997653 1.5192505 2.7013555 2.8953557 1.5214305 -0.9004555 1.1179153 -0.3431829 2.6942012 -0.31968734 -0.01112388 -0.056739822 -0.31965336 0.25356922 1.2649021 1.1957666 -1.1251106 -0.5786483 0.30299175 -2.7690682 1.9752886 -1.2442057 0.96859294 -0.47427532 0.3938232 1.2647421 -2.6660955 -1.2419659 1.8547298 0.7247949 -0.025799891 -1.5013322 -2.8470628 2.1745427 -0.035638105 -0.48224303 -2.331098 -1.0398755 -1.2839245 0.49820018 -1.9701105
108 -0.07542908 -0.87255913 0.92933756 -0.096455336 2.4152992 2.2700398 0.26189947 -0.18746363 -1.6324574 0.3142518 1.4954371 -1.3615916 -0.84671926 2.8063984 -0.24474971 2.5470142 -2.9321928 -2.2581933 1.2543414 -1.4875196 -1.544884 -2.197338 1.1269838 0.049285684 2.1687322 -2.3824453 -0.40186325 0.57705003 0.04330192 -0.1269653 2.4080713 -0.19867587 2.0252738 -1.3888415 -1.1921295 0.74961 1.262748 -2.2323585 0.17228241 -3.1811929 0.1703765 -0.078792535 0.79283893 1.2022268 -2.1217694 0.7753032 0.64476 -0.19401564 -1.5614122 0.4864187 -1.8926569 -1.2952429 1.1521517 2.8208234 -0.22268261 -1.897387 -0.9734949 -0.72760135 -2.9235704 0.3037423 0.70125 -0.70991945 0.5449828 -0.45790777
7 0.25069705 -2.0704849 -1.2828988 2.486491 1.846378 0.19227968 -1.0352346 1.421114 -1.6923555 0.73913544 1.3637216 0.3407272 0.8296641 3.251915 2.272782 2.947228 -1.7681059 -1.1873828 1.7715791 0.18785064 0.4001816 -1.5538863 0.62159973 -0.38087392 1.8165054 -0.6361046 -1.6080986 -0.11792636 1.5053881 0.57607496 -0.33441314 1.2487845 2.518973 -1.4612874 -2.070781 0.12556209 1.6663634 -2.434544 1.2393943 -3.937061 -0.9989365 -0.4872296 0.58429855 -1.0998068 -2.0252564 2.2300313 2.2247417 1.9384933 -2.765311 0.75471526 -1.86641 -1.0962422 -1.4125191 2.081775 2.2171252 -0.5393887 -0.7111725 -0.39888448 -4.240386 -0.6143828 1.483004 0.48033515 0.13051459 -0.12803672
171 1.034526 -0.30238602 -1.3301148 2.0102882 3.5905495 1.5879445 1.0873148 -0.52741516 -2.4437647 -1.410152 1.3008782 0.20303696 0.9462827 2.7252505 -0.958626 1.2860019 -3.840284 0.1821761 1.1599985 -0.44257277 -1.1736195 -1.9179908 -0.28074387 0.76255894 2.1788993 -1.299233 -0.28641087 4.0736766 -0.49801433 0.7127891 1.6925647 1.5218356 -0.99576014 -0.16259424 -1.9943355 -0.26167172 0.5109839 -0.60570097 1.6195221 -3.681615 -0.18332332 -0.39909247 -0.7953342 1.2864498 -0.82603335 0.16474263 -0.21411206 1.0412079 -0.19835515 -1.1765541 -1.8471469 -0.9862432 0.66538966 2.2371852 -1.112355 -0.7685986 -1.2114649 -0.7287344 -5.6231604 -1.479827 0.96967477 -0.77863103 0.80920124 -0.110629715
88 -1.1822323 1.3855404 -0.5732118 -0.0231306 -0.46035668 -1.2471802 1.6535177 1.2588351 -0.5055881 -0.9489517 0.3222421 -0.413853 2.170421 0.88239336 2.9568288 1.7152312 0.45975775 -1.0533165 2.6133115 0.10340597 1.7822694 1.591073 0.57166713 0.002804201 1.2628285 -1.9771768 0.89164627 -0.9824574 -0.94867504 -0.9123226 2.393268 -0.4331127 -1.7274051 1.9577519 2.4908652 0.2772558 -1.7190632 2.1159768 0.29446107 0.72105837 1.5425339 1.8130686 0.62687296 -1.5017934 2.0909734 -0.4825642 -2.9057388 -0.122044995 -1.3074833 0.389159 3.1458166 1.0206201 0.082755655 0.19879276 2.1355033 -1.9272945 2.3361573 -1.4525831 1.6588931 0.09723075 -2.053926 2.3496401 -0.4821527 -0.5119735
146 -0.7137265 1.1684737 0.6866798 1.2411518 0.057128157 -0.55317336 0.93671995 0.74196917 1.3666137 -3.0016868 -0.5392766 -0.575937 3.5072503 -0.576194 2.5385108 0.17045626 -1.0661782 -0.5773092 0.9745202 0.22092882 0.0548588 1.9554052 -3.1948762 0.043971602 0.98214996 -3.5318866 1.1698403 -1.0527648 1.2690359 -0.5286248 0.12681234 -1.5221698 -2.1294525 1.1847297 1.0098482 -0.6279186 -0.43809304 2.4264762 -0.20048991 0.56450707 2.113977 3.2364416 1.5156028 -0.90788794 1.645636 -0.106425546 -2.5796902 -0.95333487 -0.7502011 1.4225817 3.3133383 1.3229901 -1.3118746 1.6773974 1.6498225 -0.026839517 1.8734131 -0.98308957 2.4147925 0.88191724 -1.2392634 1.382985 -0.22467919 -0.89055705
175 -0.66590255 -1.0363659 -1.2923871 -0.5231282 0.7314742 -0.6928139 -1.6251243 -4.0639963 1.483991 1.7150716 -0.035245627 1.7616922 -0.18795861 -0.72756296 -1.3329804 -2.8684566 2.3234422 0.7235105 1.6334441 0.87979907 -0.54428875 0.5220788 -1.1089795 -1.0767807 -2.5505016 2.5657873 2.5679858 1.4851464 1.5062757 0.69944423 -0.77572715 0.14481589 2.8082721 0.9540501 -1.2940513 -0.35073325 0.31845728 -0.5795556 0.6675218 1.5419718 -0.271202 -2.8674328 3.0031528 0.6911381 1.5398271 1.2134908 -0.17579722 -2.6709852 -0.52988255 0.6800417 0.9752806 -0.22289433 0.37575677 0.7496871 -2.2067819 0.57112527 0.14822143 -0.42082268 3.5447617 0.16240408 -0.46322924 -0.44891226 2.2904527 1.9787699
24 2.5773098 -0.097459465 1.1627151 1.8892847 3.158639 1.9658185 1.1344892 -1.5681465 -1.2277429 -1.0275792 0.94141465 -0.6376578 -0.48833984 2.6167645 -1.297407 0.086768866 -1.6092377 3.1797307 -0.5826249 0.0970042 -1.1171556 -0.90008783 -0.49386358 1.2107207 2.3270764 1.2723542 0.9830409 1.8002099 -1.166308 -0.020971222 1.1681404 2.0321343 -1.7275695 0.18482256 -0.503482 0.14081377 0.5859317 0.020565487 0.90120685 -1.9128345 -0.49596128 -1.0212951 -3.4924607 1.7331036 0.40829727 -0.2069026 -1.1360352 0.89471555 0.8026497 -2.8939114 -2.2579265 1.6152369 0.24682462 0.011226656 -2.1673882 -2.8126493 1.2449212 -1.1514437 -2.993878 -2.8277097 -0.6069459 -1.4526827 0.5149429 -2.292927
37 1.716148 1.4910719 0.93110496 2.6237001 2.2887125 1.6338189 0.87762356 -0.99076253 0.08967528 -1.4293499 0.29735672 1.0388416 -0.23077558 2.0162532 -0.1887446 -0.2698013 -0.5471718 2.97859 -3.0563357 0.4331865 -1.2593722 0.42492294 1.6101748 1.4722729 1.5473193 3.118271 2.776617 1.361918 -0.9772052 0.8226852 -0.38541108 2.3366425 -0.27813634 -0.5583765 0.2375592 -0.4161045 0.18884745 1.220964 1.4760585 -1.2528805 -0.6109696 0.32313845 -3.0618477 1.9983097 -1.3491255 1.1720725 -0.8446854 0.67163867 1.5649664 -2.9849856 -1.2103434 1.6955707 0.56591624 -0.005820599 -1.373123 -2.8183339 2.4477222 0.17792137 -0.41419917 -2.637425 -0.8544395 -1.3510865 0.26076853 -1.6856972
81 -0.6231501 2.42121 1.0124466 0.53050715 0.1157964 0.068055786 0.66230583 2.5716698 0.8782123 -2.731624 0.86444867 -1.4029878 1.8884357 -1.6559763 2.8137443 0.052292127 -1.7992766 -1.2670922 0.43424964 2.0427206 0.1127317 -0.2965483 -3.4100459 1.5273546 0.007883906 -1.4545288 1.1342728 -1.4121753 1.7921953 1.139354 2.1672952 -2.0795949 -3.2818613 1.8242089 0.6292384 -0.36359975 0.65633893 2.5854769 1.5174513 0.48950395 1.7199206 1.6583886 1.1898253 -1.4467063 0.10657676 -0.62838995 -0.77553576 -1.9788932 -1.9144123 2.3629239 3.1685555 1.6133168 -0.8884781 -0.97567064 1.2458936 -0.8249069 0.9389184 -1.6451744 3.5915782 0.77271235 -1.4030672 2.3221436 -0.8792626 0.6036808
155 1.2723913 0.7936438 1.1724608 -1.3623656 -2.7780976 0.73029757 -1.6441077 0.38732767 2.7507997 2.5436018 -0.7164404 1.1950318 0.30827078 -0.94112533 -1.778494 -0.95093375 1.3360922 -1.175387 0.49570444 0.02986059 1.6627171 1.4426619 0.14710559 0.5102205 -1.3774146 1.0828271 -1.6319679 -0.4969768 -1.0703603 0.09272258 -1.3004723 -0.14645138 1.3864411 0.43569356 1.1532084 1.8958389 0.9350587 -0.117707595 -0.48490918 -1.5722401 -0.3260981 -0.43706226 1.4432404 0.40265897 1.2669106 -1.3816763 -2.2313926 1.4088805 0.81071293 -0.55828285 1.1224884 0.5911873 0.40745756 -1.1052101 -2.0920691 3.02229 -3.7791429 0.46909747 -0.5684198 0.25183618 -0.48386088 -1.3898582 1.0619395 2.6896021
42 2.3156497 1.2889225 -0.367485 1.404916 2.4627218 2.059982 0.5886493 -1.5083025 -0.77836156 -1.0455328 0.6995223 0.3212963 -0.07511444 2.5235016 -1.3259615 0.147568 -1.410644 3.0099528 -2.251065 0.42603335 -0.4177074 -0.5809927 0.47838843 2.3466957 1.6473371 2.1511674 1.7277509 2.1928282 -0.61483175 1.3512197 0.5389747 2.2588553 -1.560189 0.3497875 -0.22244173 -0.40522888 -0.14167443 1.0735282 1.4470081 -1.8637987 -0.11107151 -0.7411206 -3.504694 1.9968712 -1.0266862 1.0193857 -1.6677727 0.8790788 1.4648123 -2.9937305 -1.7442993 1.4308565 0.541149 0.19864634 -1.5242645 -2.0538092 1.8382094 -0.18594241 -1.8151937 -2.5899189 -0.6980096 -1.6274468 0.32847837 -2.8462434
1 -1.1352171 -3.6269817 0.60115385 0.8909866 -0.5049252 -0.25345632 -2.219349 1.1923242 -2.4081957 0.43471456 1.4252048 -1.0130177 -0.6212542 1.1675793 1.5756454 3.4735796 -0.8589131 -0.03974118 -0.8208246 -0.44425243 1.4736749 0.16113923 1.4539019 -1.3183239 1.3530525 -0.5277037 0.62704515 -2.475652 1.146298 -0.3995214 -0.10185636 -0.44173554 2.30459 -2.21116 -1.8718108 0.92646813 1.4787964 -1.1580529 -0.55399346 -2.4203026 0.32218903 -0.63804096 0.9900129 -0.29372722 -3.932798 2.6107113 2.0434985 1.5742962 -2.8152316 1.845812 -2.5072145 -1.3735672 -1.4449239 0.41511276 1.5489328 1.4462945 0.6240574 -1.4098867 -2.4620585 -2.4928138 0.5608459 -0.21815953 -0.2605567 -1.3121046
84 -1.0650978 1.5485218 -0.31553558 1.0241138 0.18805736 -0.45144767 0.700749 1.0979669 -0.88042986 -1.4461185 -0.10170648 -0.20984156 1.9378214 -0.08143104 2.4879746 0.44776154 0.012151874 -1.6962194 2.2554045 0.48835889 1.819124 1.5757525 -0.12873822 0.056999892 0.5750024 -2.0393589 1.3079875 -1.5477623 -1.3197714 -0.6840483 1.3864082 -0.5742254 -1.8745693 2.1508858 2.1098948 0.5854122 -1.3193457 1.8485783 0.38299862 0.7977574 1.7186373 2.37121 1.3689127 -1.3699378 1.3402754 -0.95090395 -2.5859065 -0.41492078 -1.6230607 0.587377 2.7750053 1.0672926 -0.27534145 0.87172365 1.8506367 -2.3529491 2.1321278 -1.8985057 2.1155477 0.54530424 -1.2565274 2.7126188 -0.5489321 -0.6249958
72 -0.04868273 -2.0311408 -1.7029312 1.4012787 1.121744 -1.5110813 0.45356435 -0.97334886 1.3408173 0.95092094 -0.44330034 1.3623446 2.2720284 -2.8097534 -2.4860802 -2.21121 1.0632879 0.58467484 1.6400343 1.3723053 -2.6555402 -0.6519158 -0.6588018 -1.2230455 -3.4950583 1.531245 1.9490561 1.5503228 1.9530151 2.8812551 0.41417652 -2.2387412 1.2721484 1.5368983 -1.6316853 -0.9565914 2.9877708 -1.4292129 0.19189407 2.434987 0.66581005 -2.1416535 -2.2559118 -0.86461025 0.75115484 2.2195923 1.444905 -2.693611 0.3168992 -1.3792144 1.0673045 -1.4303497 0.2024344 -1.7717463 -0.7159931 -1.167922 -0.69589335 -1.7319976 5.2696075 1.7820824 0.061803233 -0.16801569 1.3665617 0.8287275
82 0.23147982 2.8209121 0.5126531 1.3057994 -0.13986628 0.16141075 0.11393162 2.1284764 0.002324405 -1.8866261 -0.27576458 0.17386034 0.899914 -1.123676 2.40553 0.25595102 -0.4371312 -0.056330975 0.3936392 1.443047 -0.28191036 1.1275623 -3.1448894 0.77913755 -0.86959267 -2.4855158 0.42945307 -0.9250768 -0.09562502 0.24973267 1.4092071 -1.3753451 -3.2015033 1.1156 0.9535986 0.0030848333 -1.7668631 1.0887276 -0.44011322 0.80543625 1.9560323 2.0625272 1.1447049 -1.2626569 0.26643467 0.18513532 -1.8049679 -1.5863062 -0.8946872 1.1431286 2.2931025 1.5713651 -1.1964167 -0.13032089 2.112772 -3.119111 0.043603875 -2.3315358 2.4797194 0.80282474 0.45465353 2.3412454 -2.0365372 0.61159134
190 0.21795274 -1.5349642 -1.7434679 0.76677364 0.56353605 -1.455091 -0.72243553 -1.2504336 1.2528558 1.3825235 0.57772344 1.6072143 0.94085264 -2.4816773 -1.3979472 -2.2358282 1.5808773 2.0583441 1.7172089 0.68136066 -2.6407523 -1.0005428 -1.3351384 -1.3642795 -4.6934447 1.0741841 1.4627626 1.4322973 1.4541343 2.7140088 0.6676065 -0.6453189 1.6665266 0.81822884 -1.7341235 -1.5942879 2.0669801 -1.3575552 0.72342587 2.5033648 0.56908077 -1.5780154 -0.723272 -0.6991265 0.16309269 1.1900369 2.0019667 -2.8767822 0.074373 0.5735342 1.3779563 -1.2377388 0.109261364 -1.2326571 -0.5359274 -1.0249132 -0.46590072 -2.384556 5.2963123 1.5720744 -0.761673 0.12047786 1.9001518 1.0632399
13 1.8097646 0.9666874 1.8144047 1.4654118 0.92727786 0.31915247 0.8819023 -0.85095537 -1.0166495 -1.2064953 -1.3625243 -0.6069589 -0.23462021 2.5547004 -1.6917465 -0.5279198 -1.1826506 2.6196752 -0.95111865 1.8942238 -1.2309372 0.8839575 1.6453569 0.34010231 0.8266929 2.049804 1.2266039 0.32363033 -0.4867344 2.0983858 -0.91131204 1.9901911 1.5848334 -0.17038718 -2.4377677 -1.8442258 -0.19592737 0.9027833 1.252152 -0.7489627 -0.76382303 -2.75508 -4.9864182 -1.411902 -0.8326099 -1.3583082 0.052956425 0.47299406 1.7031933 -3.4504461 -0.25778314 2.1623344 1.2396905 -0.7603998 -2.069604 -3.0864344 2.5100172 0.80488414 1.2460575 -1.2397153 -0.53858 -0.7225889 0.22935769 -2.5938835
55 0.7375523 -0.3325747 -0.54762954 -0.021877097 2.4393294 1.8900204 0.6604893 0.5752418 -1.4911107 -0.8458025 1.4488013 0.08932007 -0.43288845 3.904297 -0.9551196 2.29068 -2.6209164 -2.712584 2.4615111 -0.6652615 -1.6725556 -3.453479 0.6360403 -0.61600006 2.5964143 -2.8143797 -0.94357157 2.289402 1.4521955 1.3032409 0.8814871 0.9684744 1.3287504 -0.9767644 -0.5934896 1.3601091 0.7980981 -2.2136674 0.0883461 -2.8667357 -1.4480178 -0.17275588 0.6409551 0.554149 -2.0604987 0.60138637 0.4548058 0.8761319 -0.03570921 -0.74515796 -0.6820948 -0.83478403 1.1501479 1.9515549 0.0712629 -1.5056691 -1.8268503 -0.8350501 -2.4038994 2.182436 1.6537836 -0.12348245 1.3406694 -0.84417725
135 -1.7310047 -3.225956 1.8878448 1.0413219 -0.87227213 0.56612206 -0.9876925 0.99820054 -3.3287036 0.0465779 2.1494129 -0.8072059 -0.64089143 0.48538056 3.2893298 2.5432143 -0.42914453 0.32711226 -0.6564384 -0.62635195 2.052575 0.51823616 2.117806 -1.3200396 1.4084713 -0.31584644 0.49738804 -1.1260858 1.4543668 -2.1364512 -0.6920448 -0.030340811 1.7976964 -2.402152 -1.8352579 1.438853 0.10401059 -1.4027545 -2.004818 -2.1655173 1.3225268 -0.68423694 0.6408417 -0.8252484 -3.6699243 2.7237923 2.500314 1.0235718 -2.2788134 1.4339905 -2.391506 -1.4127547 -1.2835377 -1.4357895 1.7171805 2.3644488 1.3395802 -1.5474241 -2.2093687 -2.0452993 2.2644176 -0.46034682 -0.57306564 -1.2267631
162 1.3259684 0.45907852 1.2332302 -0.62560457 -2.075997 -0.37231493 -0.36180383 0.20910786 2.526221 2.6683116 -0.80461174 0.9150691 -0.33926678 -2.0938401 -0.9148718 -1.0820445 0.70386964 -1.3266135 -0.12054437 -0.47120777 1.192855 0.9483043 1.2731216 0.44206327 -1.2253674 1.2609898 -2.664761 -0.5042988 -1.7751813 -0.52074325 -0.61425656 0.47851816 1.6855125 0.2781329 0.5592586 2.3893337 0.38383576 -0.0035234478 -0.6906338 0.24527955 -1.7921675 0.9668327 1.6239612 0.111095 0.891737 -1.4590313 -1.9541236 1.6938161 0.91664964 0.27743006 1.7409105 1.0782055 0.0019673624 -1.4726589 -2.8463802 2.108662 -3.2518327 0.6450429 -1.5582849 1.4181855 -0.7782884 -1.4392725 0.46050853 2.1465592
196 -3.0024533 -1.5848706 0.8597601 -2.7474945 0.43583718 -1.2961496 0.075522505 0.6510142 -1.0787573 -1.2210984 1.347811 0.10017073 -0.28801662 -0.8397398 -0.06800828 0.21578586 0.8696215 -0.82712513 -2.0469608 -1.323134 2.4006155 -0.046741903 1.0950699 0.11557356 0.28098777 -0.42989758 0.48239833 -0.73337173 -0.8966881 -2.0401013 -2.7906716 -1.861509 -0.3697115 -1.359264 0.2102631 0.7412617 -2.2380226 2.524145 0.7389487 1.671361 0.15394121 -0.3704243 -1.8350558 0.6818784 -1.9606185 0.72242254 3.5226197 1.7664504 1.4568889 1.0486338 0.555256 -1.8055981 -1.016809 -2.2218795 3.0703003 2.667766 0.103680775 2.6955025 -2.2931082 -1.1843132 3.039073 -0.5278256 -0.5545977 1.5053943
166 -2.861204 -1.9279677 0.93566763 -2.569232 0.50219244 -1.1061333 -0.078995235 0.8274102 -1.1744757 -1.0935223 1.1528007 0.07675088 -0.35706073 -0.39243066 0.13471812 0.092578955 0.75079566 -1.2107772 -1.9581091 -1.1641401 2.6844826 -0.04592086 1.2414788 -0.26415417 0.48550966 -0.50825465 0.18131517 -0.7651607 -0.526447 -2.4054353 -2.6002629 -1.68272 -0.30486548 -1.0013924 0.21753831 0.8028709 -2.1292043 1.9409097 0.4979581 1.6654333 0.2836964 -0.38440806 -1.726505 0.72335345 -1.912941 0.7059948 3.6412463 1.527312 1.4627973 0.77026427 0.8444252 -1.6548837 -1.0707904 -2.5867221 2.7829363 2.6366735 0.08489368 2.4566135 -2.6579387 -1.124237 3.4869332 -0.3674807 -0.53500116 1.3530036
161 0.8004369 0.56058943 1.0179827 -0.32468784 -2.0055547 -0.5084855 -0.3821773 0.12126451 2.3892586 2.5289946 -1.4136128 0.69370586 -0.88537574 -1.9168006 -0.58689106 -1.1204835 0.5822013 -1.5482814 -0.7836833 -0.7334574 1.5950831 0.35049427 1.2304261 0.7011566 -1.0359759 1.1598512 -3.2670221 -0.44760048 -1.9054016 -0.56464547 -1.3263038 0.102328 1.7130972 0.45195642 0.5516036 2.117703 0.061832216 0.49061146 -0.14024621 0.54319626 -1.8283149 0.9139783 0.975309 -0.13442151 0.15265419 -1.3145148 -2.1301694 1.7640998 1.096467 0.47093728 1.0733681 0.8852666 0.106449015 -1.5188898 -2.5174623 2.6997325 -2.4682446 0.49355584 -1.9462352 1.695703 -1.4038578 -1.5060833 -0.09511313 2.0109756
16 -1.9531977 -1.1524079 0.79139143 -3.4290223 -0.107230134 -0.97058237 0.88284636 0.7321197 -0.9914562 0.022135798 0.34061423 -0.3160611 -0.8929528 -1.101184 -0.27984017 -0.44417372 0.681633 -0.56243414 -1.8843491 -1.9739848 3.0361 0.13513164 0.4947877 1.377589 -0.5073939 -0.6629276 -0.7210674 -0.17010264 -0.50729394 -2.8873875 -2.921125 -1.1087235 0.77283907 -0.0864328 0.15163419 0.4484493 -3.0050142 2.3285196 -0.08665944 1.7333151 -0.50144315 0.25265563 -1.7594206 0.7004494 -1.540845 -0.063127436 4.2751646 1.4763564 0.901789 1.0261602 1.0222073 -0.3887551 -0.9048198 -2.2184966 3.0116858 3.0883183 0.54077524 3.2123718 -3.0626671 -0.8346871 2.6686811 -0.4647209 -1.048387 0.75066036
178 -0.14475091 -0.64157856 -1.9321998 1.425727 1.4427627 1.7245057 1.6356896 1.7888647 -1.0662519 -2.457889 1.7190008 0.72499347 0.75775194 3.2489278 -0.97933626 2.3751159 -1.9597275 -0.9741544 2.906233 -1.1361428 -2.0366814 -1.1897993 1.3331556 -0.5940842 1.330756 -2.1814685 -0.7779922 1.9211837 0.53254855 0.9974829 0.5468868 1.574521 0.73399734 -1.8366024 -2.7693193 1.1738925 1.0949161 -1.2349046 0.3322494 -3.4255164 -1.6586944 -0.33545846 0.32386473 0.85360503 -0.07100284 -0.96045303 0.9315109 0.87021506 -1.9148036 0.036463868 -1.7302576 -0.6591103 -0.07346198 3.6708882 0.24868482 -2.203659 -1.3171803 0.29131812 -4.375378 0.5164957 2.6869745 -0.88882756 1.201274 0.3266271
197 0.95721525 2.3547554 0.74152476 1.8591521 0.08487491 -0.25324166 0.23899172 2.85774 -0.0678842 -0.9438761 0.07677819 -0.86250395 -0.34376422 -0.4261184 1.247664 -0.09741813 0.3831249 -0.22857915 0.28767252 -0.5857269 -1.0106927 1.5413045 -1.5294691 -0.09578357 0.8410919 -2.6762934 -0.20377542 -1.4607713 0.29987404 -0.65191704 1.0868242 -2.5388846 -3.4328718 1.2596595 -0.03711948 -0.9536136 -2.2978544 0.46327165 0.8156286 0.4741365 1.4051366 2.0406559 2.3169854 -1.9927619 1.9316328 2.0656452 -1.8943733 -0.39111203 1.2540427 0.9681317 2.4132035 1.0321263 -0.46223068 1.584643 1.2187499 -1.482597 1.4006876 -1.7197212 2.6234689 0.21860144 0.3225678 4.0854936 -2.657101 0.8262853
151 -1.6045669 0.9762858 -1.0048846 -0.0833335 -0.14730178 -1.5503312 1.5107837 1.0553732 -0.10806325 -0.5924613 -0.3742478 -0.7236465 2.5541327 0.57769954 2.9219434 1.8059764 0.3607188 -1.4864663 2.7943563 -0.5287838 1.7636529 1.6686434 1.0605725 -0.29280552 1.4603909 -1.8658067 1.4047692 -0.4182287 -0.55097675 -1.002844 1.9597868 -0.88843304 -1.5841141 2.6962934 1.8460096 0.56738377 -1.8662388 2.2100265 0.30370265 0.37289432 1.3451427 1.9660219 0.85477495 -1.5597229 2.2009606 -0.16977933 -3.432789 -0.5307778 -1.3541127 0.084342994 2.899734 0.8625231 0.10380148 0.29517046 2.247217 -1.6189555 2.6748939 -0.887147 1.3028932 -0.22044022 -2.7451303 2.0337174 0.015748588 -0.39693192
111 2.206109 0.91507095 0.617855 1.8584919 2.569616 2.0193455 0.98859346 -1.0482495 -0.5322881 -0.9793011 0.7984093 1.1382153 0.18550585 2.2227278 -0.36310273 -0.13680089 -1.0148553 2.441514 -2.2761393 0.3270065 -1.2824146 -0.11278167 0.56931597 2.0098681 1.9089171 2.6607482 1.6125245 2.0241413 -0.6632679 0.24686736 0.46936023 1.8593316 -1.2027115 0.22618374 -0.067348674 0.013641804 -0.23750424 0.6276615 1.2467017 -1.4989743 0.25224033 -0.3467665 -3.4321826 2.0788205 -0.9782391 1.0829933 -0.9926789 0.8034146 1.1742189 -2.895812 -1.2096876 1.3708383 0.7592597 0.3814034 -1.6441009 -2.5022664 1.8522501 -0.57836527 -1.3225193 -2.1152523 -0.67517143 -1.765186 0.28537607 -2.3813226
154 0.94655144 0.6308586 1.457073 -0.31669465 -2.0041046 0.08104535 -1.6758856 -0.04657391 2.79213 2.8276722 -0.51885074 0.49474156 -0.6075289 -1.2217286 -1.409677 -1.1359742 1.2909065 -1.4421381 -0.3626579 -0.03244091 1.4754167 1.2285475 1.1546361 0.5814514 -1.5727094 1.5439708 -2.0428538 0.192427 -0.8299455 -0.532796 -1.2449886 -0.032647245 1.2288935 0.008669469 0.32632822 1.6871563 0.99852556 0.06309402 -0.91937435 0.36637074 -1.0813011 0.43206453 2.1216524 0.73233813 0.7081393 -1.0871683 -2.8126853 1.0582554 0.81808794 0.16749646 1.6824512 0.9504633 -0.157718 -1.1988006 -2.728597 2.6823251 -3.1475942 0.16628209 -1.7915525 0.8428792 -0.9946571 -1.5445529 0.34976012 2.474837
157 0.8858072 0.59013957 1.3130305 -0.060538907 -2.1076138 -0.25512856 -1.162902 0.09119131 2.5450008 2.9987142 -0.5665588 0.5042416 -0.84280115 -1.7195575 -1.1199212 -0.73933476 0.28682032 -1.3558321 -0.18271838 -0.050904155 1.3044344 1.5116715 1.2145572 0.515342 -0.99881333 1.3062164 -2.9884782 -0.36567342 -0.7769926 -0.29836333 -0.9994491 0.29453146 1.4187621 -0.3636385 0.70497483 1.8457744 0.20299102 0.0025375704 -1.0419865 0.43868774 -1.1087255 0.9049948 1.972842 0.67856634 1.0878015 -1.6026288 -2.755938 1.3778822 0.7216687 0.26033175 1.7538214 1.1086054 -0.4047079 -1.358423 -3.2166219 2.109134 -2.9460473 0.7595745 -2.0719013 1.1378024 -1.1550965 -1.1950152 0.40363267 2.0975034
41 0.8674762 2.147823 0.31209525 1.4175994 -0.2779358 -0.12942822 0.51885784 3.698917 -0.1962858 -0.6051615 0.20375748 -0.48393664 -0.3864835 -0.43114927 1.4564062 0.21926248 -0.08007799 -0.57555944 0.31225392 -0.0037977826 -1.0532098 0.89030343 -1.0342491 -0.0585375 0.73923826 -2.0455756 -0.16486084 -1.6706904 -0.27579474 -0.66254705 1.9178547 -1.9865518 -3.0037122 1.6419898 0.41585085 -0.9322723 -1.9665512 0.65158004 0.82369435 0.46241146 1.4132755 2.0335796 1.9641153 -2.040403 1.7030704 1.8805181 -1.6804619 -0.24317424 0.7819569 0.967038 2.6598258 1.3044093 -0.020372227 0.7838475 1.4363321 -2.47594 0.6824063 -1.8513069 2.4784343 -0.092114806 0.1906391 4.231815 -2.9044914 1.2386937
21 -0.70546484 1.060532 -0.867311 -0.61998963 -1.1866014 0.659889 1.111585 -1.4573423 0.28295127 0.17650425 -0.34023947 1.150542 -2.2623918 -0.9570421 -1.2936817 -0.20777635 -1.2425292 -0.22400984 1.0957451 1.7005036 -0.96220046 0.14976747 0.24612579 -0.06652716 0.18147476 -1.1151245 -2.0034215 -0.9694771 -1.5238205 -1.0510751 1.0222872 2.5345006 -0.41003442 -2.5497782 2.8858335 -2.3657467 0.84224975 -1.9480488 1.3360636 -0.3740621 -0.8797668 1.1027286 1.1927952 0.044124328 0.2575717 -0.31936648 -0.5699289 -0.32817796 -0.852198 -0.9953996 -1.8619955 -0.8630346 -0.79820555 -0.47145075 1.8451171 0.15366505 0.39945096 0.32796368 0.79510385 0.7030691 0.9484005 -0.41638857 0.85683763 -1.5602515
2 -2.1918955 -3.7668488 0.31026664 0.9217041 -0.43129954 1.2296034 -0.9411764 0.85355175 -3.5613863 0.9410854 1.5130892 -1.3176877 -0.0759008 1.0079774 1.1607753 3.56363 -0.6796227 -0.9334863 -0.456069 -1.9169282 -0.24012005 -0.014475863 1.7233063 -0.11280843 1.7717187 -2.037229 -0.19376676 -1.6808101 0.67632896 -1.0262392 1.1944783 -0.000117365074 1.3833841 -2.9872603 -2.3838863 1.440138 2.1859612 -0.90135545 -1.5725826 -2.244348 0.7713896 -1.788644 0.5760662 -1.3238268 -3.195572 2.5042663 1.0301046 -0.18016829 -1.8020209 1.2452774 -2.7303023 0.5674529 0.3645805 1.6858087 1.0499948 0.8801065 0.012610071 -2.3527129 -2.615403 -0.96543616 1.853272 -1.197253 0.38890386 -1.4182897
79 -1.5768198 -3.10137 0.27882636 0.2706761 0.7254907 1.9799327 -0.91929334 0.76782966 -2.3693757 0.89400387 1.258039 -1.5381328 -0.483422 1.7396027 0.70680064 2.823372 -1.5301003 -1.6784437 -0.07010453 -1.9571575 -0.65771466 -1.2505106 1.9827085 0.50400376 1.7725236 -2.309627 -0.2695132 -0.9069521 0.57315874 -0.7260548 1.7537285 -0.2827885 1.7781669 -2.4995635 -2.150782 1.1089143 1.7633028 -1.582227 -0.6904008 -2.828757 0.73680556 -0.8270326 0.72212636 -0.60208046 -2.710663 2.114329 0.84464055 -1.1526544 -1.519372 1.1362826 -2.2102633 0.20954373 0.4149606 2.7810836 0.4726186 -0.19122656 -0.83965534 -2.0985072 -3.0834148 -0.07846948 1.2772924 -0.8766354 0.8413832 -1.5145078
145 1.2686691 2.3262837 1.0385815 2.7499294 1.8025602 1.3142909 1.3407921 -1.4929491 -0.2575547 -1.4994425 0.51403904 1.9694918 0.8872963 1.8435981 -0.5667171 -0.7781006 -0.5582631 2.6206074 -2.369523 1.3011159 -2.053057 1.2083815 2.1114867 0.5677632 1.2887512 3.7622564 2.7362158 0.73809785 -0.8840898 0.5888226 -0.64773375 1.5062022 0.77534163 -0.17680334 0.44100106 -0.89051956 0.57860875 0.44164973 1.0963098 -0.64938587 -0.7126753 -0.45561713 -2.3289304 1.4049282 -1.5604917 1.0026673 0.6301413 0.5380624 1.6321894 -3.700392 -0.464457 1.2267991 1.1462387 0.5530317 -1.974743 -2.9774225 2.381742 0.44428423 0.3335887 -1.4684292 -2.0542476 -1.7484185 -0.22498272 -1.0864794
11 0.7582037 0.13596249 1.3250934 0.74913424 1.2853793 1.8283868 2.1175673 1.5692031 -1.125311 -1.7418314 2.3243315 -0.16389787 -2.057822 2.764792 -0.7710896 1.8276674 -2.8887784 -2.081726 3.2512553 -0.56125337 -0.30339718 -3.6292017 -0.27431065 -0.048782047 2.2667904 -2.7283537 -0.91737896 1.185377 0.21263668 0.86172795 0.69874597 1.1831763 2.7008536 0.38143232 0.26352704 -1.0385742 0.847181 -2.0672414 0.020012166 -1.15345 -1.543576 -0.7988592 0.5390104 1.2124684 -1.3006855 0.4877766 0.44578958 -0.46432793 -1.2616868 0.079458795 -2.7625914 -2.1559339 -0.9076811 2.3386638 -0.640523 -0.52288306 -0.28695333 -1.6417297 -3.829081 0.14025812 0.87814367 0.20625809 1.6416074 -1.0504588
80 0.8788993 -0.31807306 1.4011452 0.029646551 -1.5486134 -1.413323 0.3428032 0.32172355 2.5978265 1.5179313 -1.741692 0.5231094 -0.69559884 -2.466881 -0.5450406 -0.62062633 0.6642561 -1.3924986 -1.8724797 -0.5415262 1.3100971 -0.3789027 0.94368726 1.3377331 0.054210022 0.9860344 -3.098756 -0.4520629 -2.4457064 -1.4062543 -0.73165715 0.08140801 1.2267916 0.51644695 0.6417231 2.554339 -1.1260686 0.77459365 -0.2873532 0.63017875 -1.4199901 1.5236721 0.8167726 -0.40568885 0.29920143 -1.7128322 -1.0615622 1.6531296 0.96887666 0.68346 0.4347947 1.0926676 0.027013965 -1.3253498 -1.9157077 2.9427886 -2.488207 1.7054161 -1.894251 2.2007284 -0.87209225 -1.6233748 -0.49412483 1.9723381
141 0.044555828 1.1822711 -1.1261625 0.876882 1.4561756 -0.5740519 -0.2657631 1.5912393 0.7608254 -0.16211893 0.82870233 -0.3882501 1.720984 -3.5404084 -0.23794946 -0.5731646 0.1510263 -0.00409949 1.1943836 2.400628 -2.6451805 -1.4876965 -3.5138125 0.8214314 -5.9932747 -0.20273313 1.1587875 0.7893861 2.455288 4.4139776 2.0251696 -2.002565 -0.20506717 0.14644673 -0.8878603 0.00010593717 2.406031 -0.11334666 0.29295352 2.3538454 2.0041518 -0.6902328 -0.54916525 -0.53286713 -0.32552835 0.9644864 0.647105 -3.2865613 -1.2353715 0.3860872 1.802694 -0.647539 -0.7205975 -3.077728 1.4374226 -1.0414324 1.2216607 -1.1089422 4.940958 1.048393 0.35084337 -0.68770057 -0.23614767 0.70070344
71 -0.67989784 -1.3687688 -2.230213 -0.12581353 1.2962648 -0.13035786 -1.017532 -3.405183 1.6949673 2.710428 -0.6249174 1.8455781 0.61096525 -2.1218536 0.11399627 -3.069063 2.1339235 1.0603983 2.2906957 -0.8804134 -0.541031 0.08687286 -1.3794858 -1.9030457 -4.718652 1.5787091 1.9837345 1.4817944 2.224941 1.5041151 -1.160479 -0.28436342 1.6573969 1.3857478 -0.957045 -0.45834792 0.6885882 -0.39044908 1.2112426 2.2183132 1.4015855 -2.2567587 -0.18689205 0.3234101 0.0684675 1.699183 0.35995597 -4.12752 0.28646502 -0.49568433 -0.48764956 -1.5134382 0.21064495 -0.45310035 -1.2690663 -0.8741225 -0.6169749 -2.7381985 3.7590475 2.3280852 -0.77612835 0.35332453 1.7439959 2.406324
188 0.7369328 0.06653214 0.90388614 -0.19154723 -1.7552296 -0.8239865 -0.03452102 0.40098003 2.3530204 2.0442495 -1.696011 0.6462836 -0.7158535 -2.383635 -0.6708764 -0.7070165 0.54800427 -1.7595243 -1.2815537 -0.33224827 1.4912025 0.20342036 1.3077964 1.0997801 -0.61187476 1.0746356 -3.5392458 -0.4019513 -2.2490199 -0.33350363 -1.0923353 0.18840344 1.5536444 0.5742774 0.5557819 2.2667 -0.35962617 1.0924107 -0.41805765 0.6058472 -1.9490633 0.8058736 1.3571132 -0.0023611323 0.016003015 -1.254942 -1.980576 1.650197 1.0432911 0.53226584 0.5534394 1.2993934 0.08519202 -1.5381981 -2.185874 2.9013631 -2.4594429 1.3401152 -2.0197158 1.5170991 -1.0607326 -1.541502 -0.5002887 1.9643098
50 -0.6751067 0.92566156 -0.6765191 -0.2333649 -0.93916875 0.6317298 1.5351524 -0.8604698 0.4397939 -0.042302113 -0.01712973 1.3360713 -2.2748096 -0.67145705 -0.8472387 0.010298691 -1.1208581 -0.37914497 1.8013228 1.4321954 -0.86021143 -0.16828458 0.09173112 -0.31528884 0.49271742 -1.235797 -1.9007645 -0.8861501 -0.8880501 -0.99505866 0.33835703 2.4217253 -0.16082165 -2.4340541 2.9157374 -2.0828867 0.85762894 -2.2883523 1.3952451 -0.49094298 -1.3279538 1.1167527 1.3832555 -0.15108517 0.4334101 -0.07926993 -0.22266375 -0.4688267 -1.3387091 -1.1448605 -2.3506265 -1.0795194 -1.238423 -0.22692692 1.9766138 0.16566832 0.29426432 0.033346098 -0.038443133 0.7616152 1.1390048 -0.084579155 1.2044977 -1.651582
28 0.10096493 -2.284514 0.022679482 1.7574918 1.1905612 -0.30423605 -1.3762555 1.3761301 -1.9690815 0.95313543 1.386637 0.08539587 0.5724239 2.3504202 2.6207707 3.3411646 -1.8919718 -1.1393952 0.90310484 0.45571727 0.6864244 -1.1086274 0.90831256 -0.7158673 1.9965043 -0.46572548 -1.0794233 -1.0366614 1.3158901 0.16122593 -0.35907584 0.9552062 2.8352456 -1.1832439 -2.1220503 0.030458337 1.4296552 -2.7506814 0.85188717 -3.3328063 -0.7628537 -0.69409245 0.5736469 -0.58750206 -2.2821364 2.27172 2.0428612 2.1892464 -3.7655165 1.2327375 -2.4158154 -1.5524293 -1.7834015 1.632468 2.2479079 0.24751687 0.02134086 -1.1686888 -3.5685177 -1.7381691 0.9993321 0.40336514 -0.3931516 -0.30565235
4 1.4278566 0.61354727 0.8921359 -0.9911556 -1.5402389 -2.446143 0.46235672 -0.5287909 1.8054767 0.6174114 -1.7015903 0.17574173 -1.1417454 -1.2684845 -1.9740369 0.27306226 1.4322995 -1.7559015 -2.1251035 -1.6474888 2.7181053 -0.39647764 -0.33029324 2.0908964 -0.1564227 -0.024457335 -1.0803292 0.29471993 -2.3322866 -1.7012323 -2.1212115 -1.1374644 1.58015 0.9818233 0.5362931 1.7060227 -1.7991524 0.74775743 0.5053158 1.2477962 -1.0403262 1.9283199 -1.1875092 -0.48326662 0.15534739 -1.6648948 1.983381 1.8036261 0.83708537 0.44920716 -0.39783096 0.6136063 1.2579217 -2.0679572 1.4722452 4.6403728 -0.59164524 1.8345135 -1.2720608 1.6147938 0.32992443 -1.455553 -1.2881658 1.6183425
163 1.5284795 1.5499471 1.4138274 -1.5099019 -3.4644656 0.8237217 -0.67593825 -0.3316986 2.5294895 2.2016716 -1.0027181 1.317771 -0.14178945 -0.45530367 -1.3768102 -0.59530634 1.4557124 -0.895796 -0.25483248 -0.3051322 1.6268486 1.6886435 -0.016329063 0.96908545 -0.9071299 1.1642442 -1.4104307 -1.1067417 -1.7010754 -0.4641238 -1.3419384 -0.46988204 1.4857891 0.5334892 0.9841121 2.1261878 0.3041952 0.21712704 0.20050372 -1.7927142 -0.049146134 -0.30560628 1.2603177 0.016959658 1.412374 -1.6119604 -1.9515606 2.3269987 1.0680269 0.019164609 0.62026405 -0.095165804 0.5988887 -1.0633994 -0.92576385 3.3954873 -3.377099 0.3446053 -1.3163043 0.7834778 -0.6584479 -1.3494096 0.5568538 2.715569
103 -0.92551154 -2.8319268 -2.6353323 -1.16076 0.17602459 0.20976205 -3.6980183 -1.391565 0.7332524 2.68024 -0.45474154 2.9640715 -0.21269877 -0.22754921 -2.0951586 -2.9075794 2.5321782 1.1450316 1.2419221 0.8884308 0.03204522 -0.24722898 -1.9509274 -1.7245809 -1.6831992 2.8687062 0.44011217 1.2177519 0.9137096 0.3278787 -0.3697172 0.18530294 2.4580684 0.70092106 1.771064 -0.6011397 0.023408988 -1.195009 -0.765341 0.65406436 0.27048895 -2.2002401 2.689032 0.7586256 1.736248 -0.0719397 -0.40018278 -2.9585223 -0.060717877 0.824387 1.0669515 -0.07994099 0.041317124 1.3505629 -3.1105027 0.1837972 -0.7845884 -0.27371082 3.7880282 -0.33282453 -0.58227754 -0.35234365 1.2514648 0.44417742
195 0.8396368 -0.5188475 1.4256507 -0.040239092 -1.5874108 -1.163393 0.46186203 0.15447201 3.0120401 1.8109663 -2.024958 0.8862833 -0.67183685 -2.0460646 -1.1070682 -0.6875435 0.66261774 -1.5561686 -1.6320752 -0.35996413 1.3549756 -0.15676092 1.1707497 1.4381691 -0.18290953 1.2128175 -3.1526654 -0.43139338 -2.2749329 -0.88710815 -0.9378401 -0.16395763 1.3614675 0.38104492 0.7199794 2.3253238 -0.19979438 0.84173894 -0.19524863 0.3641985 -1.3453115 0.97953445 0.89163804 -0.55949265 0.2283384 -1.817634 -1.1518841 1.5758164 1.0476125 0.8865624 0.5487574 1.0056194 -0.35575327 -1.3970095 -1.7638035 2.9475596 -2.8894076 1.3620474 -1.7273641 2.0986037 -1.2289573 -1.3558815 -0.22404118 2.0615847
68 -0.40026984 -2.3577049 -2.1456904 -1.0725958 -0.12035409 0.095239736 -3.6199028 -1.2270398 1.0896304 2.4408925 -0.7058942 2.6556344 -0.21299465 -0.35101995 -1.5491772 -2.9532847 2.2033217 0.7875002 1.3771898 0.9080166 0.26654014 -0.254244 -1.6945069 -1.4134994 -1.229486 2.5708644 1.0185369 1.2038411 0.84434605 0.76466125 -0.5609801 0.55407447 2.6321113 0.4582558 1.4815667 -0.7712031 -0.23842603 -0.8262655 -0.18100692 0.16340871 -0.10923604 -2.6051197 2.742255 0.75195795 2.007808 0.1177793 -0.73549676 -2.8711898 0.20353201 0.44796658 1.3228998 -0.11915415 0.19268687 1.1326501 -2.7354443 0.6248671 -1.1475531 -0.10465012 3.6864865 -0.7010288 -0.5092376 -0.334387 1.377926 1.0245794
15 1.1598755 0.50611484 0.9919319 -0.95064795 -1.9822282 -2.488402 1.0568017 -0.31931695 1.5565842 0.47712743 -0.8590974 -0.021210847 -0.71033144 -1.2827616 -2.2340112 0.57302237 1.4231023 -0.9355061 -2.7598138 -2.002697 2.3323064 -0.9420523 -0.39960226 2.1906154 -0.08903555 -0.0650312 -0.92033166 0.12826928 -2.3354537 -2.363261 -1.3468648 -0.5058729 1.0043212 0.60421294 0.62525696 1.5972804 -2.1156461 1.0505388 -0.3733257 1.3381405 -0.44752368 2.2912111 -1.2730349 -0.16303934 0.069472335 -1.9583858 2.659434 1.7735262 0.3480247 0.67609143 -0.12817203 0.33998168 0.7372211 -1.484317 1.1493157 4.388662 -0.88628733 1.7023158 -1.554777 1.790332 0.79905134 -1.3530115 -1.4762505 1.5033711
138 -1.2788758 -1.0199909 0.55164135 -1.1387616 -0.3797067 -1.9249054 -1.0110527 -0.7182759 -0.8323471 0.6684393 0.19674686 -0.37811375 -0.80836564 -0.8815559 -0.80130875 0.93234766 0.591564 -0.8667549 -3.032633 -1.7513332 2.3991377 0.9583553 0.6783537 0.59278184 0.6815668 -1.4414253 -0.21471423 0.45556745 -1.113247 -2.2262352 -2.4390345 -0.4712262 -0.09823841 -0.9501523 0.37494636 -0.36959708 -2.4352186 1.3361598 -0.04308947 2.5103388 -0.09244911 0.6399427 -2.4556766 0.1912908 -1.5833998 -0.60006166 3.6648486 1.959702 1.1089829 1.4064687 0.89044535 -0.36763838 -0.6119074 -2.8564546 2.6446242 3.2173147 0.42248702 2.8091183 -2.1907067 -0.23739083 2.773571 -0.7227516 -1.0606228 2.3884137
0 0.9155119 2.3129783 1.5938629 2.116152 1.5462542 0.6389539 1.1093731 -1.5077761 -0.91496515 -1.7449152 0.2995073 1.8588259 0.8048864 1.630248 -1.5089374 -0.97563154 -0.80416226 2.5103076 -1.7905244 1.8607607 -2.7307525 2.110645 2.0067937 1.4652375 1.1259891 4.3721285 2.491295 0.32403165 -0.85993934 0.58284384 -0.4477869 0.8327114 1.481983 0.31789988 -0.3048211 -1.6435908 -0.15611248 0.085557796 0.5718818 -0.0630529 -0.8652637 -1.7765027 -2.4801736 0.98905545 -2.0735075 0.5720985 1.090161 0.13298585 1.915337 -3.9863298 -0.16256984 1.3126212 1.5706738 0.820746 -2.468544 -3.5030496 2.316628 1.0211782 0.9393391 -0.87159103 -1.9116696 -1.4147117 -0.046636924 -0.6516726
101 -2.8440642 -3.8490252 1.1492659 0.19809818 -0.62483734 -0.46275973 -1.0573722 0.49372748 -2.4869158 0.11630237 1.6441349 -1.5328457 -1.4327886 -0.11657966 2.9079955 0.18349229 0.10386857 -0.06832701 -2.4549897 -0.42456073 2.4859397 0.41976184 2.044424 -1.0711166 1.8043741 -0.3218779 0.54456586 -0.9016967 0.56263614 -4.3166246 -2.152503 -1.6040331 0.30709073 -2.1512654 -0.51792234 0.06382048 -1.0655977 -0.0075315475 -0.7889665 -0.067061774 0.892558 -0.03149256 -1.4143248 -0.2593793 -2.5910697 1.7655467 3.682618 0.21824397 0.33465326 1.9421457 -0.23950332 -2.3144424 -1.817777 -2.9686122 2.7463598 1.9612546 1.0570594 2.1434736 -2.556683 -1.1956391 3.805996 -0.50087005 0.6970431 0.4651697
123 -0.98075217 -2.920414 1.1935631 1.1119097 -0.45219353 0.015062471 -1.8492979 1.3728707 -2.6285887 -0.10372906 2.42089 -0.5173364 -1.1730362 0.98607314 2.4455218 3.1090162 -0.79346204 0.49160028 -1.1511656 -0.045155447 1.858688 -0.22895457 1.8724577 -2.1335301 1.4591492 0.03553048 0.7918703 -1.9994783 1.7069721 -0.6710081 -1.2523668 -0.38996515 1.998725 -2.062836 -1.3638755 1.2175044 0.87103933 -1.1673645 -0.5445374 -2.778675 0.32056063 -0.39867076 1.0849006 0.27745998 -4.2263203 2.8738217 1.726274 1.7806908 -2.9387696 1.6069995 -2.904667 -2.0990524 -1.7941802 -0.24788573 2.127046 1.5854608 1.4429293 -0.9768559 -2.3164635 -3.2000008 0.7656109 0.47265568 -0.4683639 -1.3693317
177 -1.1007361 -3.2840683 0.58288205 1.7549624 0.38361338 -0.34103343 -2.3396697 1.3159883 -2.0830076 0.64664817 1.553026 -0.7341933 -0.55036163 1.4669335 2.51495 3.3899486 -0.7575779 -0.0065771677 -0.25301942 0.18186966 1.2986643 -0.4176032 1.4036418 -1.4411858 1.5255265 -0.44009876 -0.19986527 -2.5522506 1.115123 -0.08635964 -0.18946582 0.06142269 2.246755 -1.7816439 -2.1013258 0.3735233 1.7876726 -2.005369 0.34761715 -3.0148284 -0.0429437 -0.7863347 0.8958975 -0.8647551 -3.9000835 2.860239 1.9684978 1.6826289 -3.3104196 1.8484932 -2.439038 -1.4235777 -2.1387396 0.76938 1.5259917 1.1123098 0.52539325 -1.0535845 -2.6304631 -2.507203 0.4390041 0.12206878 -0.15320688 -0.9663666
119 -0.27432176 -1.1434919 -1.7052628 -0.7507263 0.48042217 -0.13045174 -1.8718593 -3.7608855 1.7750796 1.4626614 -0.15025127 1.384185 -0.76470214 -0.90494084 -1.1531582 -2.3500009 2.2444727 0.6293959 1.2374215 0.91152906 -0.5731411 0.43258774 -0.5845294 -1.871227 -3.0771441 2.6863618 2.579448 1.394607 1.6074705 0.3649244 -0.5608514 0.19402635 2.8830085 0.6179844 -0.8970986 0.07007773 -0.0029877312 -1.1399891 1.0224566 1.7646703 -0.46851817 -3.3328066 3.4571948 1.4315809 2.148415 1.2644392 -0.7676956 -2.6661627 -0.71765405 1.0339743 0.9593655 -0.046734743 -0.06027274 1.0852827 -1.8122834 0.3300575 -0.7081328 0.08482489 3.3270833 1.2380329 -0.3580068 -0.20248455 2.358517 1.6301184
114 1.9141308 0.39300042 2.1084764 2.3102517 0.80650216 1.2040768 1.297478 -0.26076645 -0.55868196 -1.4941864 -1.3422068 -0.74426395 0.39486164 2.9409075 -1.1258621 -1.2427934 0.019430216 3.198096 -0.14296228 1.7173731 -1.3769381 -0.026491862 0.20622256 -0.34638992 1.9203839 1.5200553 0.41094637 0.13016818 -1.234641 0.5962426 -0.9328654 2.4693406 0.51110303 -0.7031766 -1.9326042 -1.1157479 0.34363645 0.47088525 0.9646795 -1.1012541 -0.378859 -2.60206 -3.9634833 -1.4619186 0.19386145 -1.7549748 0.255891 0.74128664 1.4136584 -3.7488368 -0.061285347 2.4684367 0.90819305 -1.3104814 -2.6316752 -2.8135884 2.6814885 0.4329128 0.4345214 -1.939696 -0.66378665 -1.5080137 0.4398038 -2.6067855
191 1.5286266 0.7823131 0.9928827 -0.45319137 -2.2890186 -1.7768294 0.78663814 -0.7688358 2.3260126 1.4314601 -1.6542069 0.6728721 -0.46341032 -1.3685397 -1.8372568 0.061515782 1.6613985 -2.0793872 -1.4113934 -1.4468424 2.6290247 0.33386156 -0.338113 1.8827324 0.24219361 0.26079965 -1.5461295 0.39460576 -2.7470794 -0.9220949 -1.3239627 -1.1988839 1.2647501 1.360351 0.6417545 1.8503551 -0.76449203 0.8729299 -0.054423478 0.5635756 -1.7251135 1.7632238 -0.574957 -0.8195334 0.53242856 -1.8636417 1.8555269 1.5309066 0.99491197 0.7232807 -0.5286613 1.0334674 1.1846733 -1.9338495 0.63621104 4.33835 -1.3581936 1.4912659 -1.1107138 1.8165088 0.2758466 -1.8285809 -1.4777627 1.6649749
159 1.1389873 1.1826885 1.0105706 -1.7643498 -3.3370137 1.0794035 -1.1299144 0.047045205 2.3905187 2.5553803 -0.82157063 1.1489893 0.09313629 -0.7261196 -1.5931991 -0.57025534 1.3617997 -0.9177173 -0.010001062 -0.038034525 1.4072592 2.0717943 0.13685326 0.7514754 -1.2114333 1.2160492 -1.3266214 -0.84836465 -1.3711214 -0.18901388 -1.016931 -0.61340505 1.0098374 0.6107868 1.0730623 1.9961516 0.12242892 -0.15548134 -0.23562029 -1.9076277 0.080723576 -0.45975554 1.5645233 0.28849837 1.4977535 -1.5697162 -2.190672 1.8961134 1.0706156 -0.4573846 0.56519175 -0.045540422 0.4326871 -0.876591 -1.0741287 3.3314676 -4.161739 0.41333345 -0.8009835 0.4435277 -0.44964814 -1.4544783 0.5184951 2.714192
173 1.8066841 -0.24339774 -0.89350826 2.2991912 3.694238 1.5478652 1.0409863 -0.8478579 -2.457002 -1.0546649 1.9006627 0.2517612 0.6086001 2.401456 -0.73925734 1.0949916 -4.0078745 0.630069 0.69851005 0.12862934 -1.0740702 -1.5124086 -0.21834426 1.0838729 2.3697293 -0.50562197 -0.36124384 4.4355874 -0.51681256 -0.124895245 2.0575247 0.8909394 -1.2507926 0.016444566 -1.5704322 -0.1919112 0.80672884 -0.2607254 1.0599581 -3.500612 -0.19597854 -0.7485503 -0.6771334 2.094471 -1.0401964 0.6818892 -0.9207146 0.8538568 -0.17253537 -1.5090647 -2.2108564 -0.23548019 1.0964806 2.0048862 -1.3281409 -0.74570274 -0.6911553 -1.527238 -5.3718743 -1.8318136 0.62791127 -0.8643721 0.7936861 -1.0120002
125 1.4184116 1.0717317 0.03347835 1.9590478 1.0095887 2.5928469 1.1274918 -0.4468453 -0.057094164 -2.081785 1.5682007 0.50502855 -1.3521731 1.3695443 -0.7959293 0.8497243 1.7253389 4.3617554 -2.0908523 -0.14584559 -1.3031723 -1.2495768 2.2861404 0.7502722 3.0019822 2.3628154 2.8877103 -1.2822083 -0.5284708 2.4416595 -1.5028585 1.6654226 -1.5164441 0.37076703 -0.9045398 1.9461068 0.77581817 1.3624412 1.3906891 -2.086807 -1.2743068 -0.11419734 -2.5612366 2.474976 -0.42814788 0.9302426 -1.3297946 -0.17325321 1.094568 -2.1444707 -2.4197266 1.5383484 1.2483071 -1.0375476 -0.6305295 -2.7901483 1.393755 1.5459397 -1.0498164 -3.311889 -0.6304591 -0.741223 -0.116839394 -2.675365
206 1.0074415 1.171704 1.08943 -1.3981258 -3.052557 1.2218226 -2.4702978 -0.0496915 2.5304105 2.8938923 0.18369564 1.0699705 -0.102583766 -0.9555195 -1.8991804 -1.1975654 1.5391355 -0.91163325 0.39267656 0.43992588 1.6401371 1.9774176 0.43587604 0.37676576 -1.5652877 1.1750833 -0.797354 0.25983745 -0.8181808 -0.19351391 -1.5853649 -0.3219449 1.4470922 0.21688148 1.2118164 1.3809417 0.49272922 -0.328809 -0.65272576 -1.3974874 0.0800413 -0.7927018 1.9531225 0.99238425 1.1770566 -1.0999781 -2.7768016 1.2441808 0.5664731 -0.7075962 1.4053657 0.2391828 0.52573717 -0.2679036 -1.9789634 2.869257 -3.8144796 0.856473 -0.41719386 -0.083840735 -0.25763297 -1.403606 1.3100739 2.956817
58 1.5766207 0.19126222 1.9894941 2.2406468 1.447044 1.2964344 1.124256 -0.6030561 -0.6374202 -1.3227148 -1.3624496 -1.2137197 0.040413182 3.2114038 -1.2313983 -1.2945235 0.06797231 3.2585156 0.11701047 1.4168756 -1.1161997 -0.27020195 0.27602264 -0.47607726 1.5146121 1.2813103 0.14383708 0.28021803 -1.2736921 0.39968386 -0.4544882 2.6524808 0.4920054 -0.9828012 -1.8550057 -1.0127391 0.38455307 0.50185496 1.3063223 -1.0254388 -0.06323361 -2.0862446 -4.0314403 -1.4598687 0.43277305 -1.9487425 0.020692121 0.38035634 1.5068853 -3.5251927 -0.3084075 2.5900335 1.0613006 -1.4344904 -2.2552547 -2.9461112 2.610479 0.47078285 0.006301349 -1.9343716 -0.6783677 -1.0479928 0.6102068 -2.5002801
19 -0.024773099 -0.14198798 -0.73146623 -0.8335849 -0.86834365 0.9742155 -4.610249 -2.2369895 1.6977347 2.9758565 -0.34296098 1.178665 -1.3341823 -1.1866839 -1.9277315 -2.5805402 2.7678323 -0.84394187 0.7988668 -0.06605875 0.62013686 0.06846807 -0.47599915 -1.1005529 -1.6616707 2.0778215 1.3801436 2.3235223 0.6062628 0.26475736 -2.0797794 1.2287333 2.3368573 0.27339935 -0.22624053 -0.048015438 0.86315536 -0.8293296 0.18064602 1.0424206 -0.9256896 -1.3253525 3.5739672 0.2771017 2.225464 0.59374595 -2.6346555 -0.66473264 -0.9629626 1.3799114 1.6216646 0.725315 -0.3404548 0.43016672 -2.5710034 1.767626 -1.6719083 0.045129336 1.6125255 0.70669854 -1.331276 -1.2136986 2.3835392 2.040005
128 1.2860956 0.69042754 1.4836737 -0.22275469 -1.827803 -0.30626258 -1.7207745 -0.18833692 2.5861676 2.7491028 -0.8156866 0.29681882 -0.6911609 -1.4490348 -1.9589263 -0.85576606 0.705954 -1.3014711 -0.23731703 -0.35411707 1.1693119 0.99197364 1.3130176 -0.008622063 -1.8000301 1.2723788 -1.6251463 0.13295925 -0.3171877 -0.35984695 -1.4999796 0.64110446 0.99124515 -0.1948726 -0.027210925 1.5106924 1.1992337 -0.4819721 -0.6240008 0.8128643 -1.0186653 0.18792821 2.3115957 0.58042604 1.1296523 -1.102602 -2.6124418 1.0649025 0.5100372 0.10215436 2.1337876 1.1241792 -0.64332575 -1.7595268 -2.9494045 2.127152 -3.0146651 -0.17531228 -1.5373707 0.8036197 -1.3808451 -0.8869578 0.9654698 2.262214
53 0.6216646 0.50633985 -0.14382748 1.68852 3.1943614 1.6440686 0.8178503 -0.30917147 0.8399383 -2.5726557 -0.36617422 -0.8925306 -1.281749 4.116488 -0.76883686 0.138285 0.8581504 3.8191886 0.5149118 0.61868006 -0.75822973 -0.8659985 0.5148567 -0.18869792 1.955279 0.4286388 0.07759855 0.98977256 0.12250589 1.024699 -1.2233466 1.9231304 -2.1085958 -0.91344327 -3.054026 1.8170074 0.56121284 0.5341477 1.9451995 -3.2691147 -1.0533686 0.24383616 -2.7911701 0.8789971 0.08857649 -1.6268774 0.017065296 0.6689436 -0.5533661 -2.4509706 -1.4139569 2.3269677 -0.19595504 -0.6854766 -2.0324998 -2.4987535 1.1269073 0.37109876 -1.3588877 -2.8667152 0.23763789 -1.4892192 0.6043323 -2.7064726
35 -0.50412756 0.47330394 -1.0790132 -0.8557313 -0.85767895 0.73044306 1.5191823 -2.1934254 -0.4379436 0.5542272 -0.64960235 0.74543667 -2.228327 -0.34779593 -1.6553425 0.5420638 -1.0759445 -0.4566609 0.77113456 1.7290772 -1.7502075 -0.7263415 -0.14164637 -0.0018301584 1.0728371 -2.6664388 -1.034327 -1.0500159 -0.93388873 -1.1121951 1.1533417 2.6080973 -1.058234 -1.6993026 3.6866448 -2.5654306 1.3449498 -2.673185 0.59490407 -0.83907795 -1.3611832 1.3901947 1.7290683 0.38674802 0.1421641 -0.31423628 -0.44308227 -0.33274233 -0.30981296 -0.9858181 -2.071873 -0.9449748 -0.86623025 -1.4731982 1.0333503 -0.30625388 -0.5902368 -0.27149615 0.64889735 0.993665 0.7840986 -1.1565987 1.2064707 -1.8680111
192 0.87890255 -0.4277937 0.6305282 -0.61802524 -1.1708567 -2.2058961 0.79281235 0.70581365 2.3024209 1.2425686 -1.5541605 0.29927897 -0.27613166 -2.885713 -0.8891329 0.1807215 0.8354672 -1.5802819 -2.895131 -0.7209553 1.7365115 -1.2587203 0.8194876 1.9098412 -0.033609375 0.3173576 -2.98017 0.57431483 -2.7530997 -1.7001295 -1.0103788 0.13604063 1.1249032 0.7896414 0.8918699 1.7986075 -1.834935 0.9599232 -0.59284353 1.0707873 -1.4774379 1.7185503 0.41215992 0.091993175 -0.19623435 -1.9285678 0.24503492 1.351946 1.2664827 0.8377915 -0.461006 1.0646697 0.18855765 -0.9038413 -0.73786855 3.487361 -1.9429721 2.5893793 -1.2868495 1.6799589 -0.3833511 -2.1488035 -1.4142302 1.919893
17 0.7271977 -0.42561775 1.2934518 -0.1520023 -1.0325834 -1.5692928 0.6383331 0.16657917 2.6244977 1.4499103 -2.3632364 0.5545221 -0.68446577 -2.6142306 -0.32179004 -0.3223166 0.63731456 -1.475527 -2.4347427 -0.6251947 1.472689 -0.79004925 1.0471295 1.688042 0.023854438 0.8085896 -2.9715316 -0.07655067 -2.8107173 -1.3276314 -0.9740765 -0.083821654 1.2095796 0.64773697 0.838179 2.4756746 -1.4784249 0.5605231 0.31683865 0.7352563 -1.4129359 1.1974789 0.2722402 -0.9044017 -0.009923534 -1.5823703 -0.71944666 1.7971449 1.030021 0.54892755 -0.067998484 0.8824516 0.076382145 -1.275004 -1.2332551 3.3924985 -2.496392 2.0245132 -1.6302359 2.485288 -0.9063978 -1.8684101 -0.85503685 1.9937978
160 1.6748792 -0.084922686 1.3921862 -0.9700044 -2.8015587 0.37464017 -0.38792604 0.02821319 3.0337186 2.6931534 -1.5757467 1.369043 -0.1425534 -1.3969593 -2.2619848 0.03357269 1.3688248 -1.222795 -0.20076346 -0.2730129 2.0629935 1.2430567 0.32219508 1.6625997 -0.72837657 1.7097942 -1.3139366 -0.9027583 -1.9277185 -0.15259078 -0.2787854 -0.8455452 1.0764351 1.0656735 0.84677386 2.2000065 0.30843318 -0.10920074 -0.46118334 -0.77057886 -0.7729639 0.73714656 0.7557732 -0.182007 1.9778893 -1.3752325 -1.7768818 2.3440495 0.6886133 -0.44832063 0.2814701 0.49464935 0.7708041 -1.4066815 -1.0007848 3.2181048 -3.8937552 0.5292051 -1.1335118 1.3663055 0.2751534 -1.3832378 -0.12915264 1.9979157
40 -0.9820638 -1.1373277 -2.0805373 -0.27462065 1.3843992 -1.3586792 -0.44158554 -1.9155838 1.0866247 2.068264 0.8820791 2.2766309 1.8007371 -1.112995 -0.97473216 -1.6982256 1.819048 2.0249367 2.0198853 0.658371 -0.119081035 1.3207122 -1.3966937 -2.3824694 -4.0459747 3.0606248 -0.9232668 1.0960393 2.8346703 0.5455605 0.8560421 -0.5826981 2.800309 0.7536472 0.9731273 -0.7771415 -0.44378692 -0.9364873 -0.83231544 1.6814073 2.0455997 -1.3019689 0.9725824 2.5542006 0.34603342 0.7377855 3.09004 -4.4420037 2.1311588 -1.4093133 -0.8050488 -0.5436619 0.91972184 0.64668226 -2.7019303 -1.6332115 0.16266975 -0.21643217 3.5140414 0.12574778 -1.3928562 0.0051824744 0.18343513 0.5609807
93 -0.056481443 0.0071088998 0.21094091 -2.856 -0.8003424 -2.0558298 0.9421426 -0.6040436 -0.7717135 0.3411489 -1.2588195 -0.8227039 -0.5035476 -1.6317394 -1.3515152 0.55561346 -0.2425234 -0.6938959 -2.7499626 -2.2671382 2.766521 -0.66929346 0.32884103 0.4854622 -0.71225387 -1.7000519 -0.5460169 0.41005188 -1.2296621 -2.0080693 -1.3163894 -0.23837516 0.91819143 1.3388886 0.052096628 0.15711217 -2.3885016 0.8016149 0.2990213 2.737678 -1.7391304 1.3997735 -1.8069483 0.7371697 -0.2813387 -1.2631619 3.760926 1.7770398 0.36981592 0.057208713 0.38744602 1.6213534 0.98936206 -2.1044426 1.967782 4.4173717 0.04100545 1.4443166 -1.80865 0.29157656 2.413972 -0.65592986 -2.2369626 0.7061081
113 -0.16938256 0.06373 -1.578729 1.1672986 1.1756594 -1.0729069 0.5940525 0.21219133 1.4737619 0.37844822 0.797448 0.19398569 2.090812 -3.717871 -0.79422015 -1.1397855 -0.009163751 0.6027395 1.494398 1.9795126 -2.068143 -1.682305 -1.7389222 0.13387842 -5.194288 0.22788422 0.6293688 0.83589596 2.7897296 4.2642927 1.508064 -1.7669384 0.29658347 0.31062114 -1.0057417 0.11608457 3.168775 -0.46277693 0.07001001 2.0753798 1.574329 -1.0847393 -1.7101016 -0.19449726 0.14326431 1.4715129 1.5392382 -3.0590725 -0.15420516 -0.55671054 1.0585461 -1.5800008 -0.48884088 -2.551272 0.5466391 -0.8119805 0.61762136 -1.2081233 4.717888 1.485926 -0.25306314 -0.89754355 0.3418031 0.83638006
22 -0.11425645 -1.2323798 -0.8489594 -1.3824629 -0.37930387 0.15478584 -3.879457 -1.737643 1.8353913 2.8598752 -0.27246302 1.8740802 -0.27519283 -0.7322722 -1.7672459 -2.8685753 2.4026773 -0.25595725 1.3218018 1.0465102 1.102942 -0.10029375 -1.5152731 -0.81411296 -0.85670507 2.379593 1.6057467 1.9182676 0.9002857 0.16454363 -0.80630994 0.74884886 2.236516 0.25285596 1.2835358 -0.019542987 -0.4632976 -0.87824863 -0.5884391 -0.15789357 0.2678368 -2.2244945 3.5899005 0.8971214 2.3309166 0.35640973 -1.6657687 -2.4163115 -0.2679342 0.15217766 1.0521325 0.28664744 0.13525791 1.2882909 -2.7433832 1.6009189 -1.9419912 0.5285329 3.0348113 -0.9320635 -0.452074 -1.2290416 1.5805393 1.9258542
176 -2.4905589 -0.30429697 -2.8825235 -0.7812688 1.2917837 -0.29057974 -0.95358187 -1.2368824 0.60420465 1.5000337 0.18136097 1.0956786 2.3774385 -1.7878902 -0.49495623 -0.8108476 0.92230374 2.095189 1.8957273 0.042321395 -0.3914729 1.2286404 -1.9360007 -2.4492772 -4.3422995 2.873642 -2.211594 1.4352682 4.3072786 1.4504179 0.42451438 -1.0559841 0.8013754 1.2411246 0.67059547 -0.81280375 0.5507931 -0.95525265 -0.5343988 2.5312235 2.4697096 -0.15128365 -0.8394054 2.0753708 -0.0027017412 0.3915273 3.144982 -4.692542 1.9447848 -1.2326634 -2.3862197 -1.4920832 -0.5059524 -0.21284723 -1.7283492 -1.9739012 0.4525484 -0.9335137 3.0796628 1.7486744 -2.7185295 -0.31303874 -0.515836 -0.0019177969
33 0.35463473 0.27450606 1.2166986 -1.1051638 -1.9441156 -2.946843 0.66481066 -0.75456583 1.0764185 0.37345138 -0.3210325 -0.08515157 -0.89454514 -0.9873261 -2.5870173 0.315564 1.2948264 -1.1584135 -2.7872958 -1.913634 2.5186508 -0.9720516 -0.20824677 1.6404804 -0.1290643 -0.0046534524 0.12340007 -0.037919357 -2.2245886 -2.4765422 -1.2830741 -0.2520454 0.71033835 -0.14129446 0.08091762 0.814746 -2.1579885 1.4244257 -0.4851103 2.2487981 -0.56456196 2.0716593 -1.6856657 0.17713876 0.106054276 -1.7452877 3.2341166 1.9571624 0.023980653 0.8159121 0.3090783 0.34081396 0.21549372 -1.6313467 1.3802931 4.3408523 -0.24928492 1.1106824 -1.3250993 1.294003 2.1869104 -0.9954038 -1.483773 1.5831485
198 1.3095441 1.0169823 0.53024197 -0.5516777 -2.1398616 0.13865791 -1.0840102 -0.30708525 2.6034262 3.3461525 -0.13345875 0.1698415 -0.53530425 -1.245208 -2.0349472 -1.2712443 1.066211 -1.3839742 0.2425494 -0.2676977 1.3277559 1.1536387 1.1376616 0.20067528 -2.2848911 1.1634688 -1.5224042 0.66972214 -0.5199302 -0.48636338 -1.9836607 0.8570166 1.326788 -0.1116683 -0.6478067 1.5415456 1.532476 -0.45871538 -0.7545476 0.55424774 -1.3367984 0.10177314 2.8009853 0.45007363 1.4553587 -1.3597913 -2.9885883 1.0929956 0.72163725 0.63517296 2.0552723 0.27844688 -0.5451596 -1.3151672 -2.6082988 2.351041 -2.8763757 -0.2820192 -1.0894102 0.30135688 -1.447138 -1.4844152 0.91966033 1.9285773
127 1.3085251 0.9799909 0.97982067 -1.8079423 -3.2283194 1.4154153 -2.3593922 0.07206427 2.5921216 2.8088436 -0.39093742 1.3872373 0.42661154 -0.84124875 -1.8583624 -0.9437993 1.3062408 -0.88682365 0.5455942 -0.033468932 1.6792293 2.193684 0.34409714 0.47820485 -1.0482694 0.6991497 -0.95981205 -0.33925802 -0.93982786 -0.057852257 -1.3935069 0.19816063 1.5021175 0.5930651 1.1215386 1.373494 0.54333586 -0.0039580576 -0.7045094 -2.072325 -0.1479372 -0.9561973 1.3997016 0.72771937 1.4995408 -1.229512 -2.3036563 1.4367496 0.75906837 -0.6754489 1.0289527 0.71361375 0.6715052 -0.5546408 -1.6087762 2.7072668 -3.9636483 0.43855813 0.056757238 -0.0116421655 -0.204409 -1.1961704 1.5623429 3.1147037
47 -0.73457235 1.4805208 -0.7559552 0.4577231 0.8492858 -0.2762941 -0.02204352 1.7474322 0.7302834 -1.1648048 0.10843923 -1.2511209 1.4148968 -2.840427 1.2017992 -0.0826412 -1.4626524 -0.12567636 1.1019173 2.792998 -2.0328147 -1.2094581 -4.478473 1.8889039 -4.3417296 -1.0040674 0.76205164 0.49114296 1.9710358 3.8152606 2.5398462 -1.6255614 -1.8292866 0.008984565 -0.26521885 0.3353522 1.7937425 0.78565085 -0.037020456 1.8561995 2.081496 0.277259 0.14617765 -1.2121845 -0.545239 0.0076824985 -0.5663085 -3.5298173 -1.8553061 1.0312048 1.7170424 -0.04847518 -1.562112 -2.3865926 1.4044065 -0.6626151 2.0676289 -0.18864356 4.2146 1.3443911 0.66495556 -0.7564145 -1.0632603 0.8478225
102 0.14674433 -2.7312634 -2.3234382 -0.36615542 0.8576405 -1.5434287 -1.3488859 -0.92529064 1.2199202 2.0338552 0.14099291 2.6312766 1.0107458 -0.6162192 -1.1486723 -2.7948687 2.3186085 1.3109783 1.9971105 1.559814 -0.6511485 0.07427391 -1.5552868 -1.8303639 -2.6093297 2.8089712 0.7866301 1.4695249 1.3082339 0.9561137 0.43868732 -0.5721213 3.139614 0.073081404 1.330255 -0.9249865 -0.43718252 -1.2142051 -0.55437243 0.63643855 0.97965586 -2.6893282 2.5256937 1.653378 1.0175574 0.36435837 0.6642351 -3.407311 0.78848225 -0.5364377 1.2780272 -0.5649622 0.406677 0.8542095 -2.315668 -0.14288965 -1.2171923 -0.006700625 4.0846195 -0.65936697 -0.10720178 0.07064099 0.6624599 0.6722772
39 -0.5683064 -0.08548536 -1.3157276 -1.162181 -0.34665096 0.6003267 -3.886335 -2.7506943 1.1623232 2.6775658 -0.55635864 1.2710735 -1.5718782 -0.9938926 -1.9610555 -2.2997234 2.7646616 -0.32888037 0.834403 0.015221955 -0.27763945 0.16028205 -0.54708207 -1.5217375 -1.9211085 2.1981509 1.6493284 1.8447745 0.7570983 0.30850202 -1.6783768 0.9169721 1.7936622 0.7225855 -0.93496335 -0.22240075 0.58964974 -1.2005457 0.7577792 1.4447808 -1.4162188 -1.9933003 3.7937307 0.25121665 2.2391214 0.9551957 -1.8914177 -1.193267 -0.68496823 1.5129114 1.2435948 0.28145036 -0.3717225 0.47585505 -2.4548392 1.0075445 -1.0955511 -0.45473853 2.3397882 0.30099967 -1.4350096 -1.0765893 2.4045258 1.9380568
169 2.496795 0.12980874 0.7168115 1.7953286 3.3966496 2.2905865 1.7520623 -1.3151686 -1.2966305 -0.9234203 1.5398598 0.2716599 -0.54761714 2.503993 -0.7664471 -0.06095445 -1.8586534 2.319205 -0.57515454 0.56423503 -1.3008021 -1.2523866 -0.7804657 1.8428676 2.3983445 1.1764283 0.5418352 2.5971248 -1.3814995 -0.50793016 1.3824068 1.2261992 -2.5625772 1.4503902 -0.94193584 -0.1346403 0.47782087 -0.6869111 1.5478909 -2.2043636 0.22230604 -1.5440863 -3.0572534 2.223324 0.57957596 0.14015055 -1.7577012 1.1426487 0.3663828 -1.934335 -1.7902603 0.46625832 0.26267877 0.41545588 -2.337974 -1.90947 0.88843775 -0.98732615 -4.4357867 -2.8272252 -0.54905826 -2.2405846 0.23943762 -1.9831686
106 0.116770916 -0.6876179 0.7423331 -0.3493786 2.0563643 1.951364 0.088569574 -0.14119154 -2.0403678 0.4563719 0.95291847 -0.803691 -0.4568837 3.6647775 -0.638618 2.4129848 -2.793091 -3.4183455 1.445107 -1.5366873 -1.6082906 -3.1640706 0.9790009 -0.6169476 2.7269971 -2.7212102 -1.3651416 0.29925185 0.94070953 0.09018216 1.6285934 -0.15655543 2.390191 -1.6168165 -0.92485076 1.678861 0.76881737 -1.7727625 0.31747398 -2.7249327 -0.05508956 0.17797911 0.80942595 0.55554044 -2.2144766 0.8113202 0.58155745 -0.16796534 -1.0023637 -0.09060586 -1.7175238 -0.73399454 2.4776778 2.5970137 0.5449314 -1.3258514 -1.2045276 -0.7958211 -2.1390917 1.303961 0.95817924 -0.09974948 0.9662119 -0.8872048
5 0.68902063 -0.3180989 0.08619533 -1.3241711 -1.0494394 -2.0750966 1.0823253 0.6411371 1.5474288 0.77840066 -1.439653 -0.6189453 -0.6294175 -2.970073 -0.76806295 0.0462994 0.16690451 -1.0041397 -3.271881 -1.1063056 2.1731653 -1.1931894 1.5778314 1.7001697 -0.260403 -1.4780514 -2.933641 1.1613328 -2.1495712 -2.5963483 -1.4297684 0.79607534 1.1822532 1.3102726 0.34300506 1.4197217 -2.488866 1.2106072 -0.64830565 1.6586696 -1.7493465 1.7555314 -0.33842096 0.37801647 -0.76247245 -1.9193039 1.638619 0.77872413 1.3388163 0.81318784 0.011431504 1.8266382 0.31018424 -0.95053077 0.6413457 3.639722 -1.3041844 3.3692858 -1.2649679 1.0148178 0.3642295 -1.5466689 -1.1424755 1.8798615
3 0.96491486 -0.2406272 0.30570027 -0.5668374 -0.9637726 -2.0515702 1.1363581 0.81784624 2.1574254 0.98167783 -1.3946005 0.38662502 -0.5860575 -2.806968 -0.8287618 0.39156374 0.8968071 -1.0616479 -2.8517098 -1.1845068 1.8645761 -0.76566684 0.88683194 2.1475406 -0.18171164 -0.5009808 -3.147421 0.97778153 -2.474241 -1.9063836 -1.7390945 0.40681154 1.2003528 1.0372242 0.92814624 1.6663713 -2.2530513 0.8881917 -0.37685212 1.4742434 -1.7363245 1.643963 -0.5443994 -0.3749595 -0.247007 -2.035471 1.0602641 1.0922629 1.2078601 0.69335 0.013271272 1.3124583 0.29403386 -1.1837953 0.006245664 3.6348128 -1.7962565 3.1087582 -1.3613583 1.4358083 -0.23020558 -1.606939 -1.3664794 2.1627936
63 -0.15146793 2.7627356 0.3739062 0.41910598 -0.1766373 0.24591078 0.57745224 1.2073498 1.3458396 -2.8369617 0.4861231 -1.0703133 1.304824 -2.399549 2.126025 -0.02064772 -2.1660843 -0.40318325 0.19613154 2.8522599 -0.6009359 -0.89022833 -4.0093145 2.2111819 -2.040108 -1.7792773 0.20653546 -1.1477545 1.720955 2.978718 2.2353594 -1.8746601 -2.8269734 0.36505124 0.49204522 0.8541093 1.327231 1.4950004 0.40306604 1.2142634 1.8370891 0.7398844 0.75162166 -0.6945318 -0.9647439 0.14414357 -0.33857387 -2.7436273 -1.9338863 2.1589882 2.9266417 0.6257293 -1.8133403 -1.1987399 1.179345 -1.0941714 1.4160866 -1.2444485 4.181874 1.3869001 0.036291596 0.6322137 -1.1918197 0.6093774
14 -1.3376492 1.1554431 -0.93305266 -0.45710015 -0.78848094 -1.315472 2.0065348 0.16693097 -0.07554846 -0.70530605 -0.33708414 -0.2350238 2.460579 1.0151445 3.2236278 2.1002874 0.53056747 -1.0928003 2.818364 0.02910922 1.7515403 1.6593648 1.4889222 -0.055393264 1.3839236 -2.2603562 0.86124665 -0.4165412 -1.2807515 -0.77451134 2.3449693 -0.5456783 -1.401619 2.2746036 2.1312501 0.47257626 -1.8999116 1.739678 0.07403848 0.72607523 1.0298759 1.3690342 0.7334148 -1.6139095 1.7840444 -0.3828408 -3.410918 -0.66166013 -1.0478712 0.40869284 3.1657565 0.758841 -0.16974202 -0.18510309 2.2747915 -1.8114163 2.3853662 -1.3187824 1.136573 -0.6523398 -2.6417127 1.4210275 0.40605876 -1.0106589
78 -2.673467 -3.9741712 0.21930726 0.8241858 -1.6424769 1.6763984 -0.16313 0.53581685 -4.1236615 1.2240644 1.8730026 -1.7060308 0.16307686 0.7843888 1.6274197 2.8697085 -0.0010497475 -0.82412577 -1.2878755 -1.6537768 -0.83248574 0.003414992 1.8462181 0.0796036 2.0780175 -2.0896373 -0.29017305 -1.7251971 0.97256684 -1.3240845 0.7505494 -0.4441531 0.51065487 -2.7585962 -2.6471505 1.4371474 1.37876 -0.38459292 -2.4440894 -2.1762276 0.8833525 -1.9860332 0.60664314 -1.2604189 -2.595467 2.3905897 1.0616213 -1.728994 -1.6679657 1.307038 -2.7838528 1.4656469 0.6533666 1.4279246 0.15399776 0.9604812 -0.29415447 -2.2244253 -2.7523355 -0.4692384 2.5893626 -1.6504785 0.76172477 -1.9327784
168 2.0057712 -0.13349895 -0.16791086 2.4571753 4.0527062 1.9162016 1.5531101 -1.8094702 -1.5610652 -0.85717833 1.6554135 0.011009633 -0.3789407 2.4964252 -0.26970282 0.5210956 -2.408565 1.9209971 0.1511349 0.053187564 -1.5917425 -1.298853 -0.74823093 1.5375973 2.7786603 0.059234213 0.40670076 3.855578 -0.90193963 -0.3624843 1.3951606 1.5207318 -2.8187861 1.2279656 -1.3650632 -0.0005097703 0.5541793 -0.575472 1.592724 -3.4494312 0.19716291 -1.3710951 -1.9689336 2.6266444 -0.03424171 -0.15653709 -1.1612204 0.80705094 0.42494065 -1.8598901 -1.670269 0.40997744 0.6125303 0.82140815 -2.434644 -1.5587261 0.1436628 -0.9146732 -4.79107 -2.4331527 -0.122893415 -1.6312948 0.49882257 -1.1762104
12 1.7563404 0.83780974 0.41145957 -0.5412992 -3.6876512 -0.16896427 0.06099401 -0.42346513 2.244168 2.5191355 -1.2862159 1.4760039 -0.74944127 -1.6679817 -1.418243 -0.41060206 1.8403853 -1.6378636 -0.40021998 -0.988467 2.3199973 1.0410072 -0.37359804 1.8821292 -0.038026515 0.67497736 -2.2586062 -0.33559403 -2.843652 -0.5279881 -0.74286807 -0.5126573 2.6171374 1.2578002 0.23297872 1.4484172 -0.95395625 1.4909707 -0.79649323 -0.07514051 -1.6525751 1.549808 0.041894715 -0.09303705 1.2446531 -1.447054 0.2651347 2.3770688 1.0429991 0.5530946 -0.026272211 0.84774774 1.7983059 -1.6161445 -0.018765805 3.4324598 -1.7172722 0.6700958 -1.2880154 1.5372094 0.79008585 -1.799698 -0.7232656 2.239731
98 -0.1731075 -1.9271156 -1.5672885 -1.6775402 -0.23821713 0.437246 -3.8325481 -1.4065883 1.2534953 2.6785326 -0.6126488 2.5885787 0.061793435 0.111972444 -1.7728242 -2.9617414 2.372784 0.38230255 1.187967 0.7513899 0.7121359 -0.0047682766 -1.7007474 -1.0876302 -1.1937317 2.4515693 1.3109083 1.3599035 0.47253045 0.12578852 -0.6798121 0.68880093 2.0558286 0.47684366 2.10086 -0.3598723 -0.59326184 -0.8103815 -0.5803996 -0.4984625 0.46414837 -2.685042 3.028623 1.1051359 1.9871204 -0.1816015 -1.4307957 -2.5446122 -0.11342401 0.087224 1.1170976 0.26963574 0.18982682 1.326358 -2.8027058 1.0808266 -1.673411 0.1248319 3.3483443 -0.8997053 -0.013655746 -0.54973483 1.1227258 1.6067679
91 -0.7196812 -0.18582338 0.43067726 -2.6214144 0.45284763 -2.6619582 0.9057051 -0.13433082 -0.0122572575 -0.124469176 -1.5424058 -0.7699992 -0.9870715 -1.6452285 -0.56418425 0.10911168 -0.3672562 -0.23724844 -3.631579 -1.6426744 2.0295722 -1.6763052 1.0469799 0.9385372 -1.0239285 -1.2170404 -1.1196271 0.07347974 -1.6916142 -2.9701033 -1.8666527 0.28757095 1.426419 0.29250494 0.587884 1.1186439 -3.431175 0.39534745 1.0466679 1.9249848 -0.47713417 1.3108038 -2.003746 0.12640771 -0.8773683 -1.4985529 2.4978082 1.9721718 0.6231528 -0.040760133 0.425121 0.8727409 0.24426931 -1.0853732 1.2788088 4.1507926 -0.8350166 2.5327795 -1.2497579 0.8419606 1.3669534 -0.41627452 -1.0524092 1.7700729
97 1.3518385 1.1012278 1.8236642 -0.79034775 -1.5996403 -0.01977046 -2.836433 -0.7930209 2.9056652 3.0955255 -0.2935955 0.45082435 -0.8237995 -1.6407194 -2.0427315 -1.5072906 1.6437736 -1.2567861 0.572418 -0.6112016 1.3525691 0.9200204 0.5529715 -0.42813182 -1.7157284 1.8213252 -0.18600151 0.6712727 -0.07883534 -0.56859785 -1.0752648 1.209468 1.3343225 -0.14934865 -0.079531915 1.5806818 1.2364935 -0.7570024 -0.4960481 0.58016795 -1.1047479 0.108388126 3.064727 0.44638142 2.0681 -0.32794538 -2.5275147 0.29281035 -0.011515892 0.43999258 2.217463 1.4219829 -0.5871142 -0.95916235 -3.2485557 2.174842 -3.1736062 -0.14750817 -0.5147362 0.5712521 -1.3111391 -1.1818601 1.8449169 2.6416454
60 -0.13605227 2.5586376 0.27515063 0.28276885 0.1612978 0.18363778 0.011551118 1.2187519 1.0852321 -2.410598 0.6027849 -0.6326051 1.3076478 -2.5538683 2.2618773 -0.46247536 -2.4132419 -0.024746556 0.064452186 3.1118746 -0.5575572 -1.0510519 -4.6619473 2.261773 -2.2284787 -1.467568 0.35970378 -0.5779835 2.0349262 2.8933911 2.4064717 -1.5982171 -2.3883138 0.043051884 0.61744493 0.8974966 1.2034566 1.4105285 -0.064080976 1.0679241 1.7761265 0.3736878 1.0433652 -0.8587828 -0.82764494 -0.11575001 -0.4984656 -3.1394744 -1.9473678 2.2600799 3.0958612 0.56086606 -1.6801195 -1.1877557 1.1935037 -1.2309707 1.3123431 -1.0448294 4.201148 1.3801554 0.3434452 0.38867193 -1.1996152 0.7086627
48 -1.3711216 -1.875416 0.11572375 -2.7935266 -0.13371265 -2.0560272 0.88652205 0.4083077 -1.1637106 -0.27551877 -0.7869601 -0.6711457 0.15391259 -1.8000747 -0.9935041 -0.4606572 -0.5656674 -0.4722365 -3.7435606 -0.35010615 2.154441 -2.4261732 1.2554662 -1.183933 -0.27489007 -0.5067724 -0.22530311 -0.2159574 -1.2432802 -4.176907 -1.3333327 0.0064932043 0.09119864 0.27321553 0.075188234 -0.2717664 -1.9922827 1.9331431 -0.26995945 2.0789082 0.039213452 0.52230114 -0.12863798 1.7423922 -1.5343964 -0.49939048 3.2651165 2.5717096 1.8893186 1.4425195 0.81656975 -0.67115605 -1.1015774 -2.6116738 2.667789 1.7188903 0.34784758 2.358813 -2.2361372 0.39242435 2.9765456 -0.48939356 -0.51490265 1.4656798
87 1.3571341 1.4929692 0.423459 1.887087 -0.28683177 -0.41601264 0.6106179 1.3646845 -0.006308682 -0.796159 0.19434054 -2.0088136 0.07663218 -0.56336313 0.84822065 -0.6499657 0.55213755 1.287958 0.81611747 -1.6000323 -1.3041737 1.5466514 -1.9130892 -0.23096977 1.5444565 -4.1554 -0.861962 -2.398638 1.1453793 -0.61938405 -0.575542 -1.3924983 -3.482002 -0.43634015 0.38220987 -0.4608272 -2.37812 0.06500811 0.43025935 1.0227318 1.2273453 0.97505766 2.523499 -2.3385632 2.7123752 3.2266448 -2.736015 0.99893934 2.3360336 -0.8319737 2.380535 -0.21659072 -0.8907101 3.3891408 0.5039023 -0.11463316 2.3670774 -0.3513289 1.543572 1.0024499 0.17569974 3.1538815 -3.8521392 0.5076509
187 1.4367778 0.82783943 1.6123512 -0.9691511 -3.217216 -0.46512288 0.15914868 -0.6059777 2.4527419 2.1226394 -1.1927804 1.0034357 -0.30732474 -0.93293774 -1.8445195 -0.1086997 1.5174332 -1.5189722 -0.599479 -0.21705014 1.9159317 1.0220529 -0.43431616 1.8853688 -0.28964412 1.3481234 -1.372318 -0.7644128 -2.639647 -0.93735087 -0.56086576 -1.1323407 1.034666 0.8967548 0.7800203 2.2207882 -0.18868105 0.2876585 -0.38622737 -0.89767784 -0.65641093 1.1569105 0.8872454 -0.45279092 1.5751692 -2.270052 -0.83830273 2.3862286 0.955652 0.16211654 -0.11203973 -0.2438032 0.78234684 -1.1856132 -0.6397136 3.8497663 -3.1748009 0.9313539 -1.4712676 1.4382726 0.27198428 -2.1652417 -0.29499105 2.464333
133 -3.14751 -4.0280275 1.483809 0.4054918 -0.8666946 -0.06953961 -0.74852437 -0.22938836 -3.102957 0.67684007 1.9133072 -1.748553 -1.3279366 -0.25946558 2.934364 0.82565933 -0.059753012 0.050610214 -2.5752246 -0.64728254 2.0847259 0.2677601 2.6337965 -1.4414088 2.644234 -0.81899065 0.9611568 -1.0616716 0.60171366 -4.4966106 -1.8376997 -1.0170105 0.46529835 -3.1233637 -0.7966797 0.56720984 -0.64216113 -0.36786273 -1.8510293 -0.2437242 1.2742105 -0.068104304 -1.2027645 -0.8124132 -2.5303009 1.9368749 3.8621547 0.45095947 -0.36809948 2.0579135 -0.90313077 -1.9512317 -1.6921339 -3.1189442 2.6122825 1.9803711 0.5870567 0.83363426 -1.9263114 -0.6387958 4.3092647 -0.64759403 0.61368895 0.13947466
69 -0.4176182 1.5911616 -0.9290022 0.89722836 1.3796862 -0.32082307 -0.16012108 1.2108511 0.56747794 -0.45779964 0.34820598 -0.32470396 1.0610341 -3.3049064 0.68781084 -0.782055 -1.0427366 0.31848487 1.371717 2.773585 -1.9613953 -1.7438095 -4.044899 2.055742 -5.1258683 -1.0367588 0.9082733 0.12151471 1.8985783 3.7661996 2.0770752 -1.543623 -1.2779764 0.18828478 -0.5983803 0.6970078 1.7591109 0.2627197 0.072004735 1.8848312 1.6930674 -0.5086587 -0.06427069 -1.4009603 -0.105977625 0.5885603 0.22757483 -3.7259333 -1.4396317 0.6985783 1.5291911 -0.65625376 -1.3802377 -2.5317943 1.4698234 -0.6294031 1.979335 -0.8106774 4.458589 1.5249752 0.87306947 -0.77883625 -0.6187972 0.9398121
20 0.14236307 -1.0690416 -0.4548705 -2.0061586 -1.1558958 0.71939224 -4.55535 -0.7890116 1.8720413 2.3131857 -0.69817823 2.070763 0.2672707 -0.64098823 -2.3013384 -2.0858898 2.4967167 -0.27824184 1.0570474 0.826204 0.54750866 0.5215228 -0.8096348 -0.3437546 -0.829388 2.3842907 1.1937227 1.5266317 0.26990682 0.8292179 -0.34918007 0.6000277 2.3472164 0.2656634 1.1847737 -0.4673622 -0.4427069 -0.88160586 -0.25151262 -0.99222285 0.40241688 -2.7423368 3.196518 0.86969197 2.546259 0.0021616053 -1.8630122 -1.4468995 -0.31743 -0.3320255 0.99830776 0.5445585 0.2838905 1.5188476 -2.0538404 2.2523646 -3.2486238 0.41158476 3.6877038 -0.83099955 -0.47685754 -0.69885147 1.659221 2.4354763
179 2.143469 -1.1057813 -0.25654033 1.7406796 1.371223 1.424752 0.3466958 -0.28474963 -2.4490838 -0.66911435 1.8534902 -0.5463676 -0.75138986 2.6429596 0.8298499 2.84756 -3.2378016 -1.1235754 2.6650007 -0.34584257 -0.7500259 -1.4963766 -0.94484806 -0.23670138 2.2783365 -1.6181324 0.37679452 2.142416 -0.51758486 0.37938288 2.23497 1.7252777 0.41863948 2.5114274 -0.6955576 -1.4841564 0.86861426 -3.2683747 -0.5427368 -2.7606108 -1.7667744 -0.9964099 0.3729899 2.156199 -1.4553187 -0.23191136 0.9258405 1.6325561 -1.3940213 0.59575605 -1.6868432 -2.9230747 -1.7359265 1.991266 -1.4235483 -1.9636254 -0.5023504 -0.667387 -4.4139705 0.066551305 1.3402612 -1.6381218 0.31538555 0.2217816
193 1.1370289 1.0733665 0.38775742 -0.7487699 -3.0292594 -1.1855091 0.41833627 -0.29665232 1.8977263 1.8970338 -0.87649304 0.397276 -0.6479457 -1.8820503 -0.99179846 0.09347551 1.32688 -2.48136 -0.9732325 -1.280246 2.1539185 0.8324955 -0.074378975 1.8120348 -0.094725795 0.17648321 -1.9874194 0.37741074 -3.0958247 -0.8952059 -1.1185464 -1.6353903 1.4025283 1.2960634 0.6486402 1.3829645 -0.890871 0.68485874 -0.3413992 0.33304313 -2.5680978 1.607715 -0.09469382 0.059301153 0.31684276 -1.7334328 0.46929607 1.7881571 1.123387 0.7122509 -0.42633685 0.53406495 1.5806128 -1.2097036 -0.088484764 3.6492186 -0.9804918 1.7928023 -1.5256492 1.5964705 0.82498515 -2.5312333 -1.3879782 1.8684373
30 -2.5197222 -1.8131983 0.09533629 -2.0633903 -0.794722 -1.9214524 -1.1679816 -0.059451725 -1.5341516 -1.0014788 0.49421382 -0.29261473 -0.762192 -0.4070898 -0.32676387 -0.6101075 0.05604543 -0.9636206 -2.4204874 -0.93182415 1.596417 -0.768671 0.7123418 0.65063787 0.7592867 -0.78716177 -0.009268439 -1.110319 -0.71914643 -3.0521936 -2.2365155 -1.4158529 -0.14702393 -1.3332744 -0.85889375 -0.92620623 -2.2273808 2.837244 0.32076347 1.9130214 0.22110943 -0.30440032 -1.7911365 1.9435569 -1.7961887 0.57269245 2.3312702 2.2019815 1.9219341 1.6312231 1.5857699 -2.606722 -0.5819728 -2.4568222 2.3285093 1.5679933 1.1007061 1.9451185 -1.5559888 -0.47882462 3.127082 -1.0658692 0.5937693 2.3910792
74 0.078521974 -0.7961376 -2.393873 -1.0820428 -0.08818346 0.49690402 -2.4473665 -3.3226132 1.7463653 1.7081876 -0.3933477 1.0927601 -1.298834 -1.1147323 -1.7381265 -2.0269587 2.021999 0.029041896 1.106044 0.75903285 -0.17145596 0.10198497 -0.7657521 -2.019031 -3.0801456 1.8177394 2.5765193 1.4733632 1.4901713 0.6169776 -0.61782205 0.8669574 2.2826152 0.8744127 -1.3374071 0.07051452 0.42072433 -0.92167866 1.3127548 1.6214172 -0.74047697 -2.5721858 3.3341286 1.1336839 2.747727 1.2378238 -1.2249839 -1.9516534 -0.85683745 1.7251811 0.84445536 0.038904577 -0.19625571 0.672508 -0.98018926 0.39568767 -1.0650698 -0.43412077 3.3385203 1.3578242 -0.29851463 -0.17955375 2.6117349 1.5287629
75 -0.46227098 2.0633445 0.059303872 0.29867512 0.123298004 0.24360676 0.18859915 0.9767027 1.6152506 -2.081497 0.2312128 -0.7431769 1.8263761 -2.763543 1.6469017 -0.10292168 -2.11724 0.2574924 0.62676215 3.0109959 -0.9750543 -1.1136994 -4.6955605 2.109004 -2.8229847 -1.733002 0.48639768 -0.55377996 2.3944724 3.039165 2.5158184 -1.440376 -2.2582743 0.3716865 0.063790396 0.87249696 1.830971 1.2464302 0.017555278 1.4228485 1.9095764 0.28249645 0.08774895 -1.0174377 -0.19054975 0.21479557 -0.34402037 -3.4156513 -2.1576018 1.7769665 2.4707627 0.45361957 -1.8065921 -1.6047418 0.9928007 -0.46990228 1.7803811 -0.36847883 4.179857 1.5014689 0.3495105 -0.57988685 -0.4445486 0.8225191
38 -0.83938867 -0.86196256 0.31659028 -3.0345373 -0.022601847 -2.1152315 1.7023888 0.6697313 0.47200528 -0.40834227 -1.584193 -0.57385784 -0.11167734 -2.0762432 -1.2054962 -0.74463904 0.25017658 -0.5423857 -3.616802 -1.0520505 1.9314392 -2.1606202 1.5406314 0.14996351 -1.0058931 -1.0794967 -0.91017574 0.18852895 -2.0918355 -3.634705 -1.4630159 0.7317526 0.91780746 0.53668004 0.3569903 0.865496 -2.7027843 1.7398218 0.07148251 1.7813417 -0.1529507 1.0217501 -0.32997078 0.8978319 -1.5253823 -0.896644 3.2145734 2.1654186 1.8530533 0.705191 0.55273354 0.78345394 -0.6155602 -1.8383654 1.9116749 2.8055086 -0.44817185 2.669121 -1.8263634 0.94283646 1.6704047 -0.92156935 -0.59469426 1.6006329
117 -1.3286861 -1.2898422 -0.5247187 0.4195281 2.1169827 -1.9266076 1.266849 -1.8832226 0.64515734 0.55522686 -1.9655783 0.69157183 2.4718616 -1.9727821 -3.6763768 -1.8786846 -0.65013 1.4341929 1.6841681 1.7323116 -3.2129261 3.1383152 -0.017215578 -0.55101985 -1.3317022 3.291361 2.23488 1.2106509 1.2685274 1.6949849 -1.0676234 -2.368319 1.2328917 1.6764688 -2.076513 -1.9619343 -0.12953232 -0.9342699 -0.076885745 1.9882225 -0.5093503 -3.522679 -0.8047625 -0.6248809 -1.6490108 0.5831712 2.4085162 -2.6798725 0.7999983 -4.1849375 -1.0252643 -0.53167164 0.55143297 -1.1541137 -1.2879307 -1.7862487 -0.23496588 -1.5789931 4.8702097 0.2847521 -1.5359755 0.721451 1.5253608 -0.6807337
18 -0.3171554 0.59540844 -1.2059888 -0.27053827 -1.6111284 0.71903366 1.1539208 -1.821188 -0.27458325 0.29391006 -1.1580122 1.0210885 -2.0943997 -0.6070575 -1.9823179 0.33801177 -1.2555724 -0.0627772 0.47695294 1.5914388 -1.3882003 -0.29295143 -0.19617307 0.19817625 0.32020718 -2.0816479 -0.96950704 -1.2180853 -1.1473337 -1.181944 1.148694 2.4701996 -0.3584858 -1.7588465 3.806825 -3.3453712 1.6203381 -2.3225703 1.0037719 -0.0061981133 -1.2220715 1.3191887 1.6846287 0.10129455 0.059531216 -0.20838419 -0.7844025 -0.2637042 -0.28304034 -0.95869344 -1.848004 -0.8146084 -0.5195698 -1.1030406 1.4416559 0.15903567 0.19594744 -0.06868028 0.44792897 0.56479126 0.52421665 -0.6868408 0.9604215 -1.8016815
26 2.0072694 -1.1600078 -0.75213057 -2.0917346 -2.4411535 0.941768 -1.8681548 1.1981955 -1.5193607 0.20006761 0.39382038 -1.7486181 2.6529753 0.90737706 -2.2513242 1.345549 -2.4453866 0.89193183 -2.6809058 0.53644407 -0.040038083 -0.70886606 -0.13301563 -1.138814 0.4813432 -0.7419212 0.99608696 1.5229466 0.17167884 -0.4551087 2.7428772 0.13295957 0.153066 0.55314785 -0.18583107 1.0382191 -0.9368121 -1.9398371 -1.6272908 -0.70751613 0.9236073 -0.057807267 0.543261 0.6948784 2.4386404 -1.6826581 -1.4028932 1.9082112 -0.8539531 1.8157617 0.61148214 -0.44345695 -0.2836071 0.8936006 2.1994321 -0.13902158 0.17129248 -0.9989687 0.3704222 -1.695218 -0.04882917 -1.8025472 -0.21267343 -1.1364577
94 0.297812 0.46237338 0.18357256 -0.8810471 -0.84441596 0.74553156 -4.1167355 -1.9760568 2.0188735 3.2634223 -0.50919276 1.0639391 -1.3206552 -1.6759472 -1.7659044 -2.3249052 2.853962 -0.97981656 0.61564696 -0.7441478 0.7160082 -0.03635809 0.19645257 -1.3233467 -2.291351 1.9349599 1.0664752 1.8711563 0.36873916 -0.20854841 -2.0547366 1.4815714 1.8685735 0.26888376 -0.71517414 0.5696488 1.1709874 -0.8599281 0.45561454 1.3765528 -1.3467999 -1.2687235 3.4575334 -0.14757733 2.2000706 0.7825699 -2.6028166 -0.69693553 -0.6465298 1.2989604 1.9429288 1.12575 -0.4565392 -0.11708301 -2.750761 1.5922583 -2.1778674 -0.5762552 1.1838762 0.8076201 -1.5769329 -1.0270835 2.4916584 2.6051521
136 0.4235428 0.033390343 0.085509166 -1.7699548 -0.56886274 -2.1850262 0.9658658 0.9034989 1.0192502 0.17694813 -0.9786879 -0.81637377 -0.38027415 -2.6388028 -0.6375731 0.30037493 0.4194064 -0.93915576 -3.2037215 -1.7020274 2.0383587 -1.027305 1.4305097 1.4150218 -0.34107566 -1.8973485 -2.4867957 0.9713438 -1.8271384 -2.0010836 -1.8651117 0.48179802 0.91749513 1.2500622 0.4984608 1.4094895 -2.8296752 1.3159692 -0.05856888 1.6511773 -1.4858065 1.4616101 -0.94807875 0.66581196 -0.95744765 -1.6227232 2.4285016 0.4055394 1.1133152 0.18107715 -0.19079936 1.4309739 0.44310024 -1.1649716 1.3020381 3.797651 -1.4736712 3.355781 -1.2606453 0.6466511 0.33522102 -1.1180252 -1.2187219 1.6435637
148 1.3158369 2.103687 0.038768187 2.159197 -0.3433256 0.14372872 0.08650632 2.950927 -0.1622268 0.113520764 -0.5757794 -0.515349 -0.15721829 -0.46878245 0.3395393 -0.36171147 -0.048298717 0.48346892 0.3430567 -1.1629249 -1.2407824 0.9517733 -1.0809649 -0.2055466 0.3474168 -3.213321 -0.5853599 -1.7644242 0.09867761 -1.3523785 0.8191425 -1.2141498 -3.4824116 0.6977871 -0.159759 -0.6706042 -1.7805483 0.50592834 0.7009877 0.43477333 0.9698824 1.0372517 1.6897951 -2.8928878 2.6000907 2.6183307 -2.107734 0.52222204 1.7750487 0.05514375 1.8999193 -0.100633025 -0.802351 1.7338783 1.61999 -1.4095092 1.7182132 -1.9594047 2.3497112 0.9430979 0.5926539 3.9079726 -2.9103656 0.6980471
76 0.48751584 2.7767122 0.13146834 0.69432294 0.3004311 0.44027406 -0.48338485 3.1615386 -0.63548905 -1.1112789 0.11389123 -0.52604574 0.32534254 -1.1930413 2.4649882 0.5090251 -0.48343557 -0.23445164 0.7756702 2.2741492 -1.0500869 0.48112932 -4.2143073 1.7008381 -2.3566604 -1.4760851 0.5295483 -0.6134527 -0.49717316 1.5525856 2.0830839 -1.0756696 -2.8238008 0.13424806 0.90683967 0.109899715 -2.0817196 0.56552607 -0.49484482 1.37295 2.4214945 1.4697794 1.3389733 -1.4223433 0.24340777 -0.014622753 -2.0994275 -2.2015674 -1.229742 1.4898654 1.7286474 1.3894893 -0.98154354 -1.3149043 2.2355845 -3.4220307 -0.18322882 -1.8009626 2.7238197 0.80937815 1.6247896 2.0025744 -3.2940474 0.8494519
95 1.8238772 -0.26702905 0.7904527 2.2996917 0.12804097 1.9175783 0.8012171 -0.6656291 -1.1554463 -1.0454386 1.7699167 -0.022978608 -1.4827632 0.2603003 -0.64829713 0.49571118 1.4472154 4.387522 -2.455648 0.17825627 -1.6571058 -1.2361691 1.7429389 -1.0800176 3.1577694 2.6862068 2.735556 -2.198606 -0.52887994 1.5779843 -1.8265266 1.6027482 -1.7515303 -0.4345849 -0.29913455 2.1841846 1.2877941 2.1429589 0.8262638 -1.6284292 -1.6202259 -0.01570503 -2.6474812 2.645842 0.88351136 0.00069896557 -0.9427284 -0.5294797 0.4206575 -1.9224138 -2.8423572 2.3516817 1.4719841 -1.7228464 0.24125834 -3.5362802 1.3244499 1.3368465 -0.96493787 -4.0795307 -0.17647907 0.3425009 -0.33988085 -2.380406
205 -0.037558217 -1.3462056 -1.3026985 -0.061168354 1.2098024 -0.8687861 -0.34642157 -2.8366275 2.229212 1.9811503 0.4478616 1.997506 0.41300017 -2.3824093 -0.52000993 -2.6860065 1.1448882 1.5850033 1.885852 0.96629393 -1.0386412 -0.835633 -1.3968788 -1.131509 -5.3812532 0.41996473 2.3721588 0.9027406 2.0680835 1.683458 0.7145213 0.034605402 1.5168965 0.8733621 -1.4364178 -0.1841727 1.6534474 -0.56401235 0.95735323 2.3230808 1.1627227 -2.4349027 -0.14739518 -0.42178366 0.059387434 2.001224 0.9899543 -3.2609828 -0.5852393 0.0068443883 1.1041166 -0.67559975 -0.057978973 -1.2815689 -0.6072939 -0.55713266 -0.23345664 -2.7679324 4.0787783 1.7651383 0.41364053 -0.15293594 2.3933728 2.9346108
49 -2.976894 -4.2767715 2.7561178 -0.021732453 -2.0418785 0.9022558 0.5190717 0.9178636 -3.1256163 1.6835141 2.9193978 -2.941254 -1.4127663 -0.16623156 2.7742503 2.2119408 0.5261896 -0.6149825 -2.7327688 -1.7771256 0.55490094 1.1237407 1.1200919 -2.228825 1.9386916 -1.008098 1.7842213 -1.3866539 1.64347 -1.8181391 -1.084138 -1.4808863 0.20465153 -3.3139355 -1.2072378 1.215376 -0.2588372 0.8617806 -1.4558986 -1.8972126 0.5208603 -1.4932415 -1.4505799 -1.1458653 -2.8402717 1.7374511 2.2283194 -1.5991105 -1.2006878 1.2551975 -2.3948855 -0.15174952 -0.8383112 -0.41676295 0.22618929 1.2819271 0.9380002 0.6687502 -2.007229 -1.3874767 3.0241425 -0.9046565 2.034962 -1.8043636
32 0.79443645 -0.15321156 0.3787224 -1.6482424 -2.173123 0.9025895 -4.249992 -0.6382708 2.808885 2.7609568 -0.4704663 1.3613621 0.13616852 -0.9010136 -2.3981462 -1.7242621 2.6799507 -0.6092246 1.2059728 1.0743693 1.7573378 0.93330175 -0.406986 -0.047112335 -1.122438 1.8012295 0.69272244 1.5573925 0.01135795 0.513748 -0.92258006 0.51488805 1.9313543 0.2812425 1.1143682 0.31154516 0.17834337 -0.743284 -0.49089262 -1.4806867 0.6630493 -1.8500404 2.816505 0.7251565 2.6982462 -0.31229338 -2.381442 -0.56219625 0.18996091 -0.79854506 0.62941504 0.4957039 0.36573848 0.9518569 -1.9250011 3.0625951 -3.783195 1.0353528 2.1639314 -0.6970162 -0.10861402 -1.3287106 1.6939481 2.9877877
96 0.91865706 0.109827064 0.27011302 -1.6220423 -2.3403552 1.2672753 -3.7871113 0.007669821 2.8719008 3.0175703 -0.012318174 1.5987539 0.041017868 -0.80775625 -2.257992 -1.3575565 2.3190172 -0.90033776 0.75348926 0.79995793 1.505951 1.5937045 0.12613621 0.12095528 -1.5478709 1.4150614 -0.023145711 1.2264518 -0.1542061 0.17709588 -1.3693683 0.04339612 1.775098 0.27849418 1.5276667 0.51488024 0.22947621 -0.53899765 -0.80061436 -1.5794603 0.59875906 -1.6346773 2.692996 1.2384483 1.6762726 -0.62978965 -2.6007211 0.058096074 0.5576037 -0.5802348 1.1793946 0.6207392 0.40437323 0.40880415 -1.7667277 2.699728 -4.0525413 0.8409751 1.2911863 -0.3723163 -0.53292704 -1.2019135 1.7653548 3.0204105
144 0.26815802 -0.33130333 0.53971124 -2.1524024 0.21365374 -2.9101708 0.37159675 -0.94680303 0.2829464 0.4600562 -1.4143697 -0.57111156 -1.4923623 -0.97053003 -1.3604676 0.81104857 0.1451621 -0.6691088 -3.041371 -1.5861211 2.328125 -1.0376248 -0.11753072 1.3864454 -1.0359484 -0.6749339 -0.16392674 0.03373786 -1.4362892 -2.7920065 -1.7285218 -1.3966495 1.518611 0.3325016 0.5636017 0.78029037 -2.784091 -0.09731989 1.0872009 1.8318448 -0.081705675 1.9531312 -2.2566545 0.5031642 0.64418656 -2.2861855 2.0461817 2.062723 0.932513 -0.49082324 -0.20484474 0.84046257 1.3533543 -1.2359136 1.4392997 4.558941 -0.6065021 1.7742926 -1.0119451 1.3791897 2.0585172 -0.8908181 -1.3004427 2.1053991
137 0.3899032 2.6036577 -1.0899985 0.99096656 0.7622718 -0.10528544 -0.100023635 2.6018038 -1.0582722 -0.7246845 0.7673688 -1.7539444 0.64729184 -1.745602 1.6258267 -0.17292196 0.5573785 -0.710695 0.8380528 2.834153 -2.2647603 -1.3373902 -3.8369505 1.7510188 -4.970038 -0.23501687 0.55426246 0.92191565 0.24484982 4.323924 1.3980573 -2.1831508 -0.99334955 -0.95228046 -0.03352217 0.7596383 0.059552524 0.17938381 -0.51322806 2.1302724 2.4066734 0.16837281 1.1657879 -0.7295602 -0.6982074 -1.3182371 -1.1925652 -3.0459814 -1.3218012 1.3203081 1.5223757 -0.7453571 -1.4998351 -2.3494618 2.09839 -2.1285775 0.64584315 -0.9848045 3.8974223 1.0113721 1.150303 0.17900978 -3.0895026 0.004287521
131 0.81751025 1.5640328 1.4719967 0.68688047 0.06926548 0.42668912 0.6023727 0.7608247 1.7028791 -3.814027 0.19105048 -0.5971405 2.3960748 -1.2749943 2.3809185 0.0733201 -1.3550637 -0.44398186 -0.5979633 0.5313759 -0.86596143 1.5344903 -4.0031195 0.5427213 0.3888404 -3.5513873 0.01958856 -1.6204884 2.1368296 1.1744313 0.9941967 -1.7108048 -2.35444 0.3745118 0.5922819 -0.6404645 0.8248381 1.3198439 1.0449239 1.0339096 1.676212 2.7849956 2.2963657 0.06142224 0.33312604 0.3610152 -1.8064731 -0.6152095 -0.4157226 2.8117883 3.8235857 1.6358826 -1.3815023 1.3531086 1.1713662 0.49156913 1.8370934 -1.0391405 2.6695127 0.46167395 -0.5073663 1.3568226 -0.39240274 -0.9884663
158 0.49737367 2.0177615 1.5308886 0.79130846 0.12383531 0.5565721 0.59199387 1.0703162 1.5864263 -3.7533655 0.27388394 -0.46571818 2.7077508 -1.6716702 2.428969 -6.97844e-05 -1.8718694 -0.5263101 -0.62477344 1.1292243 -0.8616604 1.264119 -4.079742 1.191202 -0.077965386 -3.2288551 0.18941379 -2.0557384 1.8819495 1.4146758 1.5948024 -1.4211814 -2.466324 0.54401386 0.53623813 -0.29049852 1.1326753 1.3922346 1.2695369 1.141463 1.4870871 2.4322944 1.9470623 -0.1989533 0.1058615 -0.21958238 -1.6306653 -0.8484364 -0.94147116 2.9821253 3.9627633 1.6089883 -1.2878319 0.77231455 1.3285154 0.016418697 1.7812517 -1.0003319 3.1372805 0.7771418 -0.35351256 1.3765147 -0.41723195 -0.75283265
100 1.5587335 1.8043482 0.107640125 2.0077684 -0.49146992 0.036491957 0.085033126 2.6106048 0.15477481 -0.054292545 -0.49658343 -0.7959721 -0.008918559 -0.09356209 0.4634636 -0.42659068 -0.12994717 0.80074364 0.41279462 -1.4593016 -1.3900206 1.0262702 -1.4267067 -0.16602194 0.92064166 -3.3140676 -0.7618754 -2.0928226 0.3035723 -1.4511347 0.21741165 -0.8390031 -3.0933003 0.35267305 -0.051285062 -0.76377577 -2.1357746 0.45927313 0.62130064 0.44610807 1.0644975 1.0379819 2.2329628 -2.7146966 2.9051633 3.0581772 -2.0511777 0.4571109 2.5572903 0.1069974 1.9658896 -0.1742811 -0.66584224 2.4899485 0.955891 -1.0495893 2.1477523 -1.2174616 2.0496192 0.6507753 0.32369846 3.6806283 -3.2388859 0.49455467
201 0.07424711 0.5191243 -0.55719095 2.7096605 3.3085465 0.61780924 1.1313298 0.5958691 -0.05303117 -1.9598894 1.7061486 -0.589489 -0.75214255 3.129484 1.162875 1.5967883 -0.18895614 1.1305852 2.8834174 -0.09300522 -0.6508431 -1.4531716 1.172141 0.4330016 1.8288199 -1.9314207 -0.53834516 -0.6219918 -0.9026918 0.9551795 -0.030865101 1.8500211 0.89594644 -0.19213091 -4.2138786 -0.23807107 1.2250277 -1.7248964 2.3827024 -4.5482616 -0.65399826 -0.7279412 -0.4302666 0.7093905 1.2002239 -1.0531783 2.3094087 0.1560264 -3.1490002 0.479532 -2.3196805 -1.201626 -1.5087461 2.0100348 -1.7068866 -1.6985205 -0.33939826 1.0489229 -4.4889426 -2.7396107 0.10674642 -1.72527 -0.8247109 0.67087936
164 -0.26604778 1.0489693 -1.9603236 0.9619479 1.8037945 -0.14850536 -0.20562387 1.7744098 -1.1128534 0.71801126 0.6500405 -0.90532565 1.3177472 -1.9462423 0.821125 -0.60282105 1.7003024 0.047452793 1.3617573 1.771169 -3.2038162 -0.82688326 -3.9990964 1.0948251 -6.579759 0.17960234 0.3874405 1.787716 1.1586102 4.0287285 0.8202832 -2.1686242 0.42547008 -0.8164212 -0.44753703 -0.104620904 0.9916657 -0.23998617 -0.6867137 2.4510665 2.6296585 0.09529477 0.07623043 -0.055935025 -0.64877415 -0.9527635 -0.6608856 -3.274055 -0.6538749 -0.18136506 0.38225347 -1.1373923 -0.64838547 -3.4910133 1.9104775 -1.1628996 0.6021408 -0.86437565 3.3450046 1.3787189 0.81845164 -0.9944665 -2.0653243 -0.083618246
62 1.2690674 0.5730682 0.49309576 2.2174692 1.5265447 0.9941935 0.9532587 0.562946 0.40265685 -2.7053797 -2.1040137 -1.0128267 -0.39767572 4.16605 -1.4427354 -0.8526272 0.86549246 3.3861852 1.2114538 1.342478 -0.9570028 -0.82585126 -0.13682349 -0.017187802 1.5828798 0.7360873 -0.6471128 0.25132525 -0.49006417 0.48887312 -0.8606452 2.4372768 -0.36795363 -0.5202571 -2.6724813 -0.41085222 0.41560832 0.4952672 2.299833 -2.206783 -0.6156355 -1.2232981 -3.7918534 -1.1451272 0.2869884 -2.0357063 0.2618128 0.880269 0.7178693 -3.6108413 0.18047744 2.2063847 1.0256325 -1.7904153 -2.8809628 -2.350208 2.7160852 1.4124802 -0.7395129 -2.061329 0.050393164 -1.5378422 1.183345 -2.4268115
105 0.6898667 -0.3948815 0.08790017 -0.8700953 2.24236 1.623309 0.9982191 -0.03745444 -2.1713178 -0.18546775 1.4998088 0.062298004 -0.31688356 3.8149533 -1.0269753 2.1553102 -2.4216018 -3.4228427 1.8635246 0.016493218 -1.8912554 -3.6096025 0.52878374 -0.82026625 3.3856173 -2.998047 -1.2232127 0.8021968 1.4475639 0.7832867 0.611756 1.228913 1.0606347 -1.0957829 0.18923955 1.572482 0.42307296 -2.424534 -0.6462988 -2.7320564 -1.5089443 0.24538249 1.0740074 0.592273 -1.850345 0.79851335 0.6384528 1.0433098 -0.65399843 -0.7123909 -1.3066947 -0.9374571 0.74069583 1.0012184 0.21851176 -1.5554477 -1.94669 -1.2415102 -1.4271693 2.0504425 1.679683 -0.30524376 1.1875908 -1.4283372
143 0.5573402 0.66007537 1.6711056 1.4975412 1.5730071 -0.09422989 0.8814155 -0.6552935 -0.8453732 -1.7351747 -2.6829395 -0.62624174 1.0283986 2.2407603 -1.9650756 -1.0361589 -1.73399 2.263025 -0.18552984 2.0343776 -2.0840123 1.734385 0.67631936 0.9983114 1.207322 1.9697645 0.748657 1.2564508 -0.46607795 1.4735445 -1.0346872 2.1229677 1.9480658 -0.64216304 -2.7872164 -2.5274832 -0.33047062 0.96676713 0.48041514 -0.24967179 -0.46723896 -1.9578807 -2.3822486 -1.7232214 -1.6574 -1.6955842 1.5219162 -0.3860691 2.2272997 -4.3622003 0.12524611 1.9086776 1.1454222 -1.5618848 -2.237679 -2.7222016 2.060571 -0.24479067 2.4599822 -2.058791 -1.5476267 -0.49947408 0.8177437 -1.9657471
89 -1.3717756 0.29742676 0.2854858 -1.5319723 -0.94016635 -2.9548407 1.9148494 1.3733675 0.36939156 -1.6238295 1.6307505 -1.7823651 0.8714325 1.4495032 2.836263 2.0154228 1.2316233 0.21919551 1.903276 -0.44879586 0.21185444 1.1050031 -0.07794549 -0.50795305 2.6144772 -0.840224 0.5809514 0.40936038 1.6686856 -0.0027614906 3.2878227 -1.3962442 -2.314392 0.67999655 2.4803922 -1.6519285 -1.5141416 1.927893 0.6404729 0.11933495 1.2880739 1.2788538 0.17549793 -1.557509 2.1980007 0.39372382 -3.1315706 0.2884145 -1.2171319 0.47127745 3.857808 1.654149 0.350601 0.0023534247 1.5797598 -0.6517906 1.0719174 -0.60549015 1.615347 0.40442464 -3.5758088 1.9150711 -1.1777897 1.0688215
109 1.6299086 -1.6697243 2.720727 2.4395597 -0.24357225 1.0270994 1.3970587 -1.6036872 -2.3284574 1.7493378 1.1946985 -0.9265699 -1.4563222 1.9019519 1.4790405 0.8116203 -0.72535014 1.3530376 -3.1616187 2.3014817 -0.72767854 0.8192773 -0.7325226 -3.4299674 2.0431495 1.2192895 0.8195121 2.128722 1.2583351 1.2409801 -1.7973208 0.097552136 -2.9053502 -0.037483573 -1.2397871 0.8220419 1.0171349 3.1813335 0.97549075 -2.0757952 -0.3056366 -2.942514 -4.8028507 -0.21357937 -0.41651547 -2.013851 -1.6625407 -1.9132402 -0.005988399 -1.2298853 -2.8721914 3.6866815 0.79217947 0.78502953 -2.7976139 -1.2541003 2.2537596 0.68237627 -1.0714422 -3.4774098 2.114267 -1.294639 0.47483215 -4.052204
115 0.50742346 3.26002 1.1649227 1.4236299 2.0884979 0.036890924 1.0956568 -2.4633753 -0.41540024 -1.6770294 0.49190298 2.638746 0.9263893 1.7498033 -1.227446 -0.7886075 -0.042009156 2.3480768 -1.9419632 1.8778316 -3.397851 2.2421672 1.42421 1.2423141 0.18118651 4.4593973 2.7532039 0.7143481 0.041298352 -0.08793275 -0.6739874 0.067263305 1.5107057 0.112004936 0.3713069 -0.8117141 0.0054554893 -0.48480976 0.90483737 0.75433123 -0.42815343 -1.8675933 -0.96319455 1.4773989 -2.006398 0.97762746 1.5447224 -0.4974092 1.1207961 -4.078265 -0.031160314 1.3541151 1.541046 1.7074618 -2.5022776 -3.0426736 3.0987198 0.82847816 1.1772054 -0.9555697 -2.4377868 -1.8603508 -0.64275306 -0.008979501
189 -1.4389936 0.35393357 0.21558774 -1.3007672 -1.2015238 -0.39553523 2.0162349 -0.563788 0.36387008 -1.1318244 -0.6290547 0.23409583 -2.2937737 -0.49736464 -1.1105518 -0.18833604 -1.0060065 0.5235387 0.91567737 1.8489594 -1.001935 -0.70541996 0.90459764 0.7926296 -0.15118344 -2.1414611 -0.9701783 -1.0652364 -1.0211644 -0.006564258 -0.32888275 1.5774156 0.36912885 -2.101243 3.7004125 -3.1193109 1.3648231 -3.4291244 0.6766637 -0.43466893 -1.967949 1.1663666 1.5023545 0.8881551 1.5195811 -0.34331903 -1.3063698 -0.7441161 -0.8068629 -0.69122833 -3.6562471 -0.7175124 -2.3544095 0.07350168 1.211203 -0.091358945 -0.13908505 -1.4701589 -0.582307 0.29665127 0.29509985 -0.35440317 0.90628564 -1.8600565
57 0.12696666 -0.82417613 -0.120421685 -0.8104546 -0.36401275 -0.23092407 -3.2065692 -1.9590191 1.3042684 3.4218745 -0.22755955 0.70232636 -1.4731222 -1.7198545 -1.7992988 -3.6194048 2.7797446 -0.6069754 1.9035167 0.24562068 0.98036134 -0.79319996 -0.6116096 -1.3546957 -1.2826272 1.7353963 2.2979338 3.018466 0.71608466 0.35746863 -1.0241905 1.1942333 2.1714473 0.5798178 -1.1060716 -0.55661136 0.077029526 -1.4557221 -0.011741966 1.6316792 -0.6217409 -1.1035138 3.2220883 -0.3716128 2.0774763 1.3526725 -1.702479 -2.2079866 -0.06202072 0.8709735 1.3922311 0.299857 0.19186267 0.302258 -1.8799891 0.9378466 -2.1334841 -0.8057284 2.9581602 -0.91144717 -0.9224173 -1.0788702 2.3039813 1.7179178
185 -1.4586705 1.6470996 -1.1166861 -0.7963596 -0.9233575 -1.2737405 1.7352425 -0.08236881 0.007853131 -0.4404659 -0.43838817 -0.27173215 2.6172714 0.6126571 2.9982266 1.903276 0.4785262 -0.6068609 2.5096915 -0.583118 1.9855689 1.6619747 2.079558 -0.18859716 1.3292028 -2.1822329 0.947185 -0.077954076 -0.46407723 -1.0335565 2.3516183 -0.445112 -1.4842486 2.3959022 1.8262627 1.1077675 -2.965166 1.0811399 -0.031220479 0.6867083 0.5468807 0.50664896 0.97069675 -1.924468 2.0210133 -0.50474036 -3.834995 -1.229933 -0.8332555 0.42244023 2.167208 -0.0013716734 -0.43783388 0.08457043 2.6135647 -1.8653616 2.3435292 -1.1297308 0.77632457 -0.4386863 -2.7831607 1.5919086 0.61832774 -0.8506092
122 -2.0924025 -0.82974243 -2.9507747 -1.0902783 -0.23117907 -0.18963332 -1.4221853 -1.2364999 0.7407984 1.0457551 -0.21782748 0.44140622 2.2683403 -1.1095288 -1.4483191 -0.21602005 1.2166046 1.7403775 1.4318194 -0.99969345 0.25158864 0.49906063 -1.0241064 -2.8245962 -3.2529447 2.5032978 -3.2761216 1.1688217 4.1206546 2.0248673 0.8395231 -0.5261549 0.5608855 1.3017828 0.18272983 -1.0170039 1.1586553 -1.0937582 -0.04985294 1.9242209 2.8461509 0.794607 -1.5719503 2.147338 0.35478464 0.29670417 3.5941503 -3.7288468 2.4719234 -0.05756959 -3.0125463 -2.4049273 -1.0048317 0.41107747 -1.4408082 -1.3141338 -0.026900548 -1.022068 3.6822088 1.8130985 -2.9123023 0.21614507 -0.14674473 -0.29910326
70 0.29305342 -1.7323632 -3.6176734 -0.9956 0.4406529 -0.7320543 -2.2853544 0.55444616 0.18212488 2.5350652 0.95913476 2.2509723 0.56038517 -0.06668536 -1.0415787 -1.6979885 3.2678745 1.2825665 1.2940968 0.49667865 -0.6614089 -1.3854175 -2.6132765 -2.111745 -3.7650695 3.1219985 -1.2142578 1.6234586 1.7597802 1.9840741 1.404645 -1.0525714 2.7522957 -0.61018044 2.131859 -0.5140374 0.26101494 -1.6974714 -0.985213 0.8891856 1.2642492 -1.2925389 2.002545 2.3591437 1.8456731 -0.3318921 1.426029 -3.8024297 1.4454038 0.64259434 0.87784684 -1.3816506 0.2531987 -0.115845375 -1.9683574 -0.61247295 -1.0579866 -0.42937717 3.8076034 -0.61091506 -1.0598676 -0.82793313 -1.2032819 -0.9899876
110 -0.19795759 0.62026405 -0.49031028 1.3074138 4.6168633 1.5553944 1.5938013 0.121381395 -0.08489492 -2.587335 0.009982671 -0.37347117 -0.8922243 4.751125 -0.64010584 0.6731242 0.2500544 1.7329884 2.5245082 -0.18001232 -1.5963405 -2.350409 0.14962879 0.060460404 2.7341616 -1.100433 -0.56176597 -0.74246037 -0.24701652 1.2090716 -0.50522757 1.8418721 -0.78560996 0.32699317 -3.8408995 1.7758744 0.44883925 -2.1259637 2.665609 -3.9450614 -1.3364228 -0.09833309 -1.5939639 0.9711705 0.8763553 -1.159643 1.1134907 1.478686 -2.4875863 -1.572641 -1.6370205 -0.3516766 -0.5956025 0.7424979 -2.395628 -2.6296146 -0.58466077 0.6392117 -3.6401637 -2.1342752 -0.2545594 -1.9567767 0.39974657 -1.0047582
10 -0.41626763 -0.18383485 -2.8687513 -0.46033046 -0.8360089 -0.6598592 0.15648186 -1.3872725 0.6793508 1.0095203 -0.74137145 0.17557538 2.0000098 -0.24521962 -0.07193678 -0.8990017 2.19487 1.226695 0.88866717 -1.371127 -1.8430766 0.3417547 -1.6095835 -2.716851 -3.0449994 2.5772486 -1.5309714 2.272056 2.1765287 3.022602 -0.99706274 -2.1772883 0.37145984 0.023721803 -0.5887315 -1.6378441 1.5054928 -1.164632 1.5560559 1.5993747 2.2271187 -0.6828638 -1.1696787 1.2420129 -0.5920366 -1.2143519 3.0054562 -3.4195516 2.858817 0.115887776 -2.3923678 -3.407966 -1.064699 -0.34666163 0.030140536 -1.347419 -0.8617949 -2.6596658 4.047062 1.9507967 -3.123827 0.2557275 -0.8747006 -1.0315332
140 -0.8297559 -0.8927046 0.8724012 1.3097608 1.6388469 -1.5900834 1.5846863 -1.1079557 0.014192483 -0.9757481 -1.7191395 1.159424 2.1775084 -1.2690628 -3.979055 -1.718667 -1.5088564 2.3061802 1.1509924 2.5014105 -3.9473827 2.7997017 0.6664796 1.0120754 -0.32766443 3.0087426 1.1563923 0.93545735 -0.22891496 1.7608317 -0.81519806 -0.97491497 1.5470237 1.4685394 -3.4467552 -2.2021062 0.40033296 -0.32800102 -0.21370183 2.0294635 -1.1084222 -2.8859882 -1.449555 -1.8479587 -1.9020451 -0.36793008 2.639476 -1.2144115 1.3433825 -3.9939907 0.51885015 0.8112517 1.2953029 -1.179402 -1.6207228 -2.2039275 0.5325047 -1.1877737 4.271063 -0.5789259 -1.9521533 0.43324187 1.8760478 -1.2211602
